9996 16
the 0.026526462 -0.03463335 0.027070792 0.04696809 0.07082075 0.0151552595 0.021827672 -0.04394332 0.02958493 -0.04949464 -0.06954279 0.079398476 0.006495423 -0.026296124 0.05169603 -0.0368008
and -0.060695168 -0.007551435 -0.020210184 0.041943286 0.036290325 0.061094787 0.06406733 0.06420906 -0.15065177 0.0463422 0.11027903 0.02202782 -0.1133164 -0.029112743 0.033029284 0.02833473
a -0.0031218713 -0.05927423 0.013334608 -0.008682839 0.034133937 0.0622963 -0.101738326 0.029012531 0.027470056 0.03622923 -0.098054096 0.002914476 -0.14479269 0.028735433 0.065445855 0.01111955
of 0.06663621 0.056439877 -0.013986388 -0.05590158 0.008230533 -0.06664022 -0.024428224 -0.05583751 -0.06298931 -0.041054968 -0.020817636 0.13276218 -0.025522957 -0.08034923 -0.036936402 -0.037924603
to 0.043461636 -0.018904986 0.03780712 0.033338927 -0.030772828 0.0004395775 0.00886435 0.046498653 -0.047265995 0.01284748 -0.011912743 -0.039584763 -0.06509227 0.008505814 -0.03587465 0.05764399
is -0.049927503 0.012837152 0.042798392 -0.09069897 0.12127188 0.07740264 0.046144966 -0.060706604 -0.15910065 0.025761757 0.04711896 0.14775439 -0.20949568 0.0030904312 -0.009999046 -0.03153743
br 0.01228895 0.033419106 0.009482083 0.054649264 0.02108527 -0.026249943 -0.06660797 2.439192e-07 -0.0067401496 0.03341767 -0.08528577 0.12480779 -0.068406865 -0.0433059 0.0026213934 0.019087091
in 0.018682312 0.05759191 -0.008386634 0.03997522 0.009499281 -0.056730945 -0.05293369 -0.026046447 -0.08810248 0.0046546045 -0.031555954 -0.008972031 -0.06761419 -0.05328415 0.031980857 -0.0058650323
it -0.008976544 0.045022994 0.015528487 0.006023666 0.06770575 0.009970365 0.07666854 0.019816414 -0.08686752 0.045096025 -0.0045057326 0.05320553 0.012925988 -0.07673069 -0.011550495 0.025717365
i -0.036067914 -0.02128813 0.01741705 0.018660156 0.079080224 -0.07571621 0.010041955 0.049521197 -0.005518204 -0.050195128 -0.04420397 -0.027721912 -0.042897705 -0.0048213983 -0.032818783 -0.05145118
this 0.008563543 0.041714065 -0.009545959 -0.0057642087 0.023886615 0.0054200017 0.013957156 -0.04932503 -0.08533619 0.0042746835 -0.02489744 0.09990505 -0.013945066 -0.049233522 -0.01259158 -0.08485835
that 0.0027043615 -0.0045239166 -0.0019198545 0.027758999 0.028837997 -0.057475086 0.055287123 0.012320311 -0.06324546 0.033539254 0.05636259 -0.030542757 -0.05163288 -0.019277181 -0.022302432 0.052455094
was 0.06072312 0.07074496 0.0005038812 -0.06726302 -0.034689743 -0.04274723 -0.07530928 0.08481384 -0.046113294 0.06252437 -0.02794438 0.08645765 -0.027767694 0.033261478 -0.046338152 -0.07013671
as 0.03720066 -0.012067925 -0.06635526 0.0147468895 -0.016792463 -0.024587024 0.007855451 0.04619778 0.0007280173 -0.06559019 0.0824418 -0.030793149 -0.05863322 -0.037495926 -0.01772585 -0.0008121427
for -0.012547397 0.02030664 0.026311785 -0.0052451533 0.062946714 -0.043019377 -0.024829557 0.011225517 0.028218077 0.05143101 -0.026323078 0.053309307 -0.059333943 -0.023754945 0.040696822 -0.007885735
with -0.07358474 -0.004806769 0.034600005 0.045858316 0.0135250585 -0.02038598 0.021227455 -0.007455173 -0.052332517 -0.004553761 0.015171367 0.10714129 0.009825579 -0.04444784 -0.012835335 0.016505511
movie -0.009145254 -0.045992553 0.09431808 0.05270614 0.123355225 -0.0072673527 0.013934874 0.053520974 -0.062658176 -0.027450353 -0.05766142 0.13948382 -0.0075468896 -0.03493644 0.008323315 -0.019053867
but 0.0196616 0.06354732 -0.021755751 -0.005803381 0.012536624 0.03015803 -0.04266091 -0.05522003 -0.030881139 0.0072464244 -0.11287508 -0.045458045 0.0895562 0.0072075287 -0.020826995 0.0061941226
film -0.07907625 0.03898093 -0.012642536 0.010682427 0.06822329 -0.023668999 0.07499711 -0.0073640016 -0.046357565 -0.016558321 0.074997805 -0.002847954 -0.041788682 -0.028196998 -0.0028331266 -0.029808918
on 0.0032402189 0.0032221314 -0.016825307 0.0024794154 -0.018949218 -0.044435035 0.060315542 -0.060649958 0.014574491 0.020557526 0.05422318 0.06735499 -0.07881032 0.052474454 -0.06181729 -0.014770942
not 0.020985175 -0.05656683 0.013567237 -0.035539005 -0.07182396 -0.048758682 -0.019010663 -0.06410896 -0.054204255 0.012416785 0.025412736 -0.06014816 -0.05710228 0.006295458 -0.098390765 0.01049563
you -0.07148853 -0.009780794 -0.04020931 -0.06272352 -0.029080847 0.039259292 -0.022078918 0.04366132 0.016463296 -0.0053510163 0.033134922 -0.076767914 -0.006318193 -0.05501906 0.04890081 0.00262441
are 0.041025016 -0.02227198 0.0128315445 0.03718922 0.05377252 -0.010412909 0.05785607 -0.013305371 -0.030495197 -0.060790315 0.020112388 0.018071745 0.018709147 -0.010525769 -0.056717847 -0.064059615
his -0.056885388 0.039818443 0.015565082 -0.008753919 0.043036558 -0.0038292925 -0.025243668 -0.010871289 -0.0056646834 0.018300924 0.0031429087 -0.024605704 0.011142063 -0.03263762 -0.0049649496 0.031584848
have 0.04020046 -0.043716036 0.033293616 -0.05993711 0.0101055745 0.052640494 0.0029765794 0.022875711 -0.055333365 0.03878853 -0.015660362 -0.02521362 -0.026462385 0.038640216 -0.022554092 -0.03954307
he -0.020992214 -0.018570993 -0.02951737 -0.07245858 0.06845467 -0.015318348 -0.023885962 -0.022884045 -0.07735902 0.019875024 0.037062634 0.016797142 -0.0771105 -0.017777035 -0.03613985 0.042675212
be 0.034931984 0.021672565 -0.016653853 -0.03324529 0.027928945 -0.026557395 0.055026647 0.011998424 0.10337268 0.020392083 0.03262823 0.0007444539 -0.016375141 -0.031031994 -0.03988723 -0.029815007
one 0.047062993 0.077175036 0.04900936 0.06832513 0.010182025 0.030342162 0.049721368 -0.059592985 -0.029695373 -0.0032427672 0.061794817 -0.018676471 0.010793671 0.0029899806 0.03513045 0.04528223
all -0.052665785 0.020233609 -0.05511456 -0.015573574 0.02477517 0.04668497 -0.044543892 -0.041924734 -0.055340465 0.024251971 0.032055806 0.086766146 -0.0023769813 0.008309775 -0.037570402 0.013246425
at -0.033782665 -0.02944354 0.0051281196 0.005482415 -0.01471581 0.035132617 -0.008412695 -0.06826616 0.00271963 0.023028588 -0.018656354 -0.02024231 -0.089824416 -0.02433411 -0.0073121963 -0.0044630542
by 0.027783202 -0.04358739 -0.040130094 -0.004305179 -0.028266197 -0.016013356 0.009394855 -0.047900997 -0.060699698 0.006477126 0.00081902836 0.0036529957 -0.040256985 -0.007714413 0.025987383 0.023851655
an -0.019187272 0.0148601765 -0.03978176 -0.053591892 0.033406697 0.035128944 -0.007225768 0.04671453 0.037665434 0.056818016 -0.014457548 0.100086026 -0.087814815 0.035833288 -0.00068482046 -0.101810224
they -0.016601603 -0.050309397 0.074307665 0.012661506 0.015912412 -0.07281953 -0.009790315 0.01768988 0.021525543 0.059034962 -0.077330805 -0.023555312 0.00017575464 0.02821574 -0.04877964 0.035303615
who 0.0005228532 0.03999234 -0.030098993 -0.027325306 -0.006404303 -0.047787756 -0.018664967 0.0708524 0.040647533 -0.0750088 -0.0007322839 -0.005816191 0.007151405 -0.028356234 -0.013644354 0.058442567
so 0.029282171 -0.038850375 0.0069264984 -0.06651576 -0.025050614 0.08677947 -0.023862923 -0.06419355 -0.06897322 -0.056242775 -0.01713582 0.07865228 -0.0756681 0.045945857 0.051945046 -0.0656629
from -0.020825276 -0.027403215 0.013113151 -0.059904672 0.04778629 -0.031579807 0.0022204798 0.019530265 -0.05717588 -0.0177987 0.053341296 0.056092996 -0.057924896 0.010014859 -0.009338216 0.0048884987
like 0.01525594 -0.03887401 -0.013578803 -0.005459562 0.011985992 -0.07612712 0.04947023 -0.019914247 -0.00273481 -0.05140425 -0.08538523 -0.040248536 0.029388882 0.07132157 -0.01062138 -0.060747832
her -0.023834677 -0.020086482 -0.0039394004 0.017912803 -0.0053085657 0.054441907 -0.09237755 -0.022394635 0.06144472 0.01845556 0.051794294 -0.018396396 -0.06388201 -0.035241336 0.06069147 0.066011086
or -0.014075915 0.029059406 0.0061033154 -0.060196586 -0.037367847 -0.032287136 -0.03993199 -0.007631565 -0.0625694 0.0168369 -0.030060839 -0.0011947057 0.026354453 0.018255832 0.030430866 -0.024736904
just 0.09648951 0.051359966 0.04672776 0.011661068 -0.013978613 0.068753615 -0.09450239 -0.034279417 0.00028436276 0.031161811 -0.011056817 0.012935448 -0.1123333 0.089922376 -0.08114557 -0.0859534
about 0.009427633 -0.009856436 -0.0012353008 0.04911858 -0.022084892 0.02768906 -0.0011069836 0.04511584 0.013140814 0.0022993996 -0.10307875 -0.09225094 -0.023470812 0.029061055 -0.009907496 0.013071237
it's -0.007911606 -0.0026615355 -0.015654007 -0.06473633 0.025326706 0.05196113 -0.021853289 0.013091562 -0.06238407 -0.0026846002 -0.033946626 0.041820746 -0.116865546 -0.06334629 -0.054274764 0.018345322
out -0.006780615 -0.06531017 -0.009546774 -0.021594405 0.051509917 0.043151163 -0.033750437 0.014271196 -0.001265482 0.0032292434 -0.040012352 0.081221715 -0.021298636 -0.024647769 -0.047088277 0.006424605
has 0.036931995 -0.0136583345 0.05985784 -0.055246018 -0.04226818 0.06091448 0.052369248 0.05273053 -0.05133798 0.013050479 0.03761858 0.00535571 -0.0076643634 0.005336341 0.0032570977 -0.005028015
if 0.0046388255 -0.094501145 0.009593092 -0.030364372 0.004422549 -0.07137555 -0.017059939 0.013270028 0.0020967193 0.0002341192 0.05584364 0.016892193 0.07530033 0.05921873 -0.04473664 -0.006141018
some -0.045476463 0.015095902 -0.03734259 -0.02916997 -0.032411102 0.0011586321 -0.07368181 -0.006543544 0.005983074 -0.05586053 -0.08775159 0.040653028 -0.05874094 0.068997756 0.036568742 -0.06382343
there 0.0099550905 0.02194104 0.00059624005 -0.016242588 -0.044089943 -0.01843978 0.058323447 -0.007938125 -0.066616386 -0.052360337 0.05505197 0.10663227 -0.007875545 0.06886414 -0.03314006 -0.018796539
what -0.07341538 -0.0054510217 -0.012480684 -0.036877036 0.030478293 0.08657456 0.048593253 -0.03921293 -0.07031915 0.049388252 -0.03393351 0.106408514 -0.03890588 -0.086558245 0.056548875 -0.025853118
good -0.040116366 -2.3114237e-05 -0.009205831 0.014319058 0.132581 0.026774764 0.047807295 -0.00018767052 0.047219675 -0.059078105 0.028325452 0.009992576 -0.0212129 -0.025777457 0.008932451 0.024227038
more 0.0017278468 0.047474917 -0.025124542 0.007219797 0.0026674757 -0.0127933975 0.012630037 -0.028136723 0.045845307 0.040178023 0.023475368 0.06004625 0.08893634 -0.044827297 0.05649291 0.024823353
when -0.03844711 -0.055035356 0.00460907 -0.012388097 -0.046820473 0.0038699643 0.004761204 0.025734095 0.033370156 -0.03293003 -0.06527673 -0.10556692 0.03986338 0.02379784 0.0550399 0.013040578
very -0.0012413599 0.01295184 0.045300182 -0.08072373 0.047507618 0.08755119 0.013376024 0.06856593 0.005955316 -0.03659645 0.076428615 0.12587859 -0.07063764 -0.008046774 -0.0031091378 0.0027788475
up 0.023611305 0.0109653445 0.0083576925 -0.0042013675 0.0067128935 -0.037723385 0.00040967236 -0.029294798 -0.045282196 -0.062841766 -0.07760089 0.019245042 0.020000027 -0.016155826 -0.051937502 -0.05493875
no 0.0597073 -0.03193223 -0.021470118 0.04392423 -0.02840004 -0.038666587 -0.10550809 -0.02034442 -0.10708366 0.06509698 0.028069852 -0.005023264 0.0679531 0.12249452 -0.043503664 -0.028755328
time -0.018966664 0.04311534 -0.008453331 -0.059362367 -0.008200263 -0.050862856 -0.0049261022 -0.06201004 0.012121658 -0.055963688 0.04997604 -0.0616462 -0.04807458 -0.019583507 0.05072495 -0.0331149
she -0.02772315 0.014286795 -0.014905928 -0.03498852 -0.020236349 0.038651817 -0.048500083 -0.014802364 -0.033840083 0.023606623 -0.031467058 0.011993785 0.0064246953 0.03411792 -0.026547857 0.004601427
even 0.09575506 -0.06097786 0.06398787 0.017303163 -0.0018922456 0.08406241 0.06260991 -0.12305435 -0.11049392 0.0229014 0.024974506 0.0409419 -0.09837897 0.014438615 -0.023734748 -0.02531297
my 0.0061470433 0.013598181 -0.02684779 0.04974703 0.049626645 0.0025457183 0.037855923 0.008938784 -0.044237334 0.015199382 0.07523484 0.026468525 -0.023477389 -0.032008164 0.020285677 0.040345076
would 0.050759546 -0.011385328 0.09841417 0.030623453 0.011886078 0.0011465414 0.022069111 0.02312099 -0.08244522 0.048855107 -0.03835993 0.10509998 -0.028223757 0.026564708 -0.04701627 -0.090361536
which -0.053762246 -0.010705128 -0.0063857273 -0.0029303508 0.009284758 -0.022766203 0.03446205 -0.02545796 -0.013885763 -0.0166782 0.026503831 0.02232886 0.04557784 0.0017605532 -0.024525836 0.033656515
only 0.053619076 -0.037376475 -0.059370823 0.053003937 -0.01902361 0.04103208 -0.005957092 -0.050586578 -0.036552772 -0.008962121 0.02610492 -0.029574582 0.050493702 -0.0006910024 -0.06333505 -0.048871696
story -0.06103674 0.005991938 0.07955305 0.04047166 0.06797202 -0.037206113 0.05078266 0.021954613 -0.16380666 0.064203896 -0.06540971 0.02314917 0.026031788 -0.06730608 -0.029208012 0.017761324
really 0.08135693 0.0005095701 0.015365925 -0.011937436 -0.026432069 -0.013018039 0.015809687 -0.067709856 -0.015893733 -0.01845151 0.03124434 0.1154451 -0.045394156 0.030269995 0.055691443 0.013648045
see 0.03061978 0.08857516 -0.019210642 -0.04366211 -0.03393645 0.0013284348 0.019590864 0.061888978 -0.00010277843 0.006084256 -0.01870771 0.0019011601 -0.015105846 0.021086307 0.0658533 -0.033389073
their 0.062143657 0.03317651 -0.006386265 -0.018817127 -0.035405915 -0.03418561 0.008535474 -0.06747378 -0.04201358 -0.038721915 -0.008254805 0.027782787 -0.0046237563 -0.0027375154 -0.026130378 -0.050620403
had -0.026025604 -0.039062016 0.0049494887 -0.020907745 0.019167954 0.0003162498 -0.061581966 0.068056196 -0.01929739 0.00050127634 0.0010826972 0.03976059 -0.018818816 0.014836672 -0.007838477 -0.04669989
can 0.049781676 -0.015915439 -0.017031748 0.0021791009 0.0040083816 -0.02324411 -0.011628605 0.030405607 0.05202496 0.04569113 -0.010698482 -5.7848636e-05 0.01445146 -0.011576402 -0.005507362 -0.012725268
were 0.02632294 -0.06202725 -0.05278719 0.02403508 -0.04320469 0.0016096012 -0.055478375 -0.017865399 -0.035228875 -0.03655919 0.0076031983 -0.010919789 0.003198582 0.017172316 0.00626549 -0.030940501
me -0.0026028622 0.007617644 -0.031699397 -0.05609709 0.0664681 -0.018385667 -0.07985879 -0.019571505 0.05242282 -0.04237389 0.045677356 0.069126256 -0.102714956 -0.023807095 0.01468749 -0.015920721
well -0.026592134 0.066339165 -0.028960004 -0.017308053 -0.0024550087 0.05224866 0.025832035 0.06651889 -0.08684897 0.03292375 0.04915932 0.03968701 -0.0033611234 -0.02508629 0.09757111 0.037375696
than 0.03299824 -0.020378241 0.04250039 -0.00072833686 0.07984395 -0.07513991 0.06951126 0.04447877 -0.01749836 0.0030594636 0.050567593 0.065963335 0.06951334 0.036430955 0.039025616 -0.061117616
we -0.033137213 -0.04173028 -0.006153092 -0.049160648 -0.018623821 -0.0030616687 -0.0015255332 -0.023967471 0.056974255 -0.017601041 0.036562108 -0.06651781 -0.009887699 0.038631614 0.0262865 0.054552652
much 0.057256266 -0.06292424 0.026381264 0.017846998 -0.04558692 0.06715018 0.022366136 0.031256214 -0.043313727 -0.05693837 -0.062282417 0.008784347 -0.03975579 -0.012110192 0.038109366 -0.056718588
been 0.0032650654 -0.018981032 0.05312079 0.062617145 0.02338727 -0.05203325 0.021760335 -0.035820764 0.031067701 0.096009545 -0.034156993 -0.08555777 -0.039928287 0.011620221 -0.08058987 -0.0638541
bad 0.13625306 -0.048589166 0.14189658 0.03111418 -0.036447525 -0.11946558 -0.03129988 0.043666795 -0.0013475036 0.13826439 0.0542662 0.08444021 0.05195507 0.112056375 -0.091134116 -0.05509483
get 0.02729256 0.031671405 -0.007135208 0.0055243806 -0.018341007 0.038371384 0.03329621 -0.0036650838 -0.007957682 -0.04063052 -0.03381312 -0.037388463 -0.057600405 -0.00014925454 0.015070389 0.02406785
will -0.0210628 -0.007653909 -0.061255954 -0.002227346 0.022310339 0.039516144 -0.04526357 -0.029502831 0.088953055 -0.041777838 -0.01884409 0.03931261 0.035121374 -0.022523314 0.03755824 0.088622764
do 0.068128586 0.01235655 -0.0042194882 -0.030361049 0.027423372 0.0027038993 0.002307229 0.015257933 0.017715452 0.018172907 -0.023466885 -0.03932818 -0.010048168 0.054425716 -0.06990729 -0.050853375
also -0.05671657 0.061682157 0.016962469 0.022869876 -0.012862697 0.006593815 -0.00322948 0.07323457 -0.014014889 -0.07235474 -0.08450259 -0.01072507 0.013559381 -0.11334009 0.07984015 0.0402124
into 0.004367839 -0.00807763 0.031323455 0.00428269 -0.00828217 0.033691656 0.032060105 -0.025000634 0.028926168 -0.08087253 -0.04497283 -0.045716155 0.046676237 0.020135855 0.0007406628 0.048060056
people 0.011106688 0.04235648 0.0015807525 0.028494693 0.0072917864 -0.013139667 0.02041054 -0.021752564 0.016446523 -0.020741573 -0.043367647 -0.034757804 0.04270117 -0.008075498 0.010229794 0.049277183
other 0.041632153 -0.006837287 -0.034748707 0.007166284 0.0039761355 -0.027861742 -0.01305155 -0.016345207 0.036696393 0.027903533 0.003389771 -0.028471252 -0.033060122 -0.09040268 0.08978063 0.0661953
first -0.06755411 -0.046749916 -0.046874154 -0.023607714 -0.016915586 0.035002965 -0.032552637 0.037852395 -0.003912312 -0.033099618 0.00051889615 -0.005924323 -0.08976098 0.008964025 0.0065313005 -0.029260527
great -0.12599291 0.064360075 -0.14750618 -0.10603419 0.08024483 0.11524167 0.09761461 0.08501541 0.109049864 0.008114709 0.14277217 0.083481684 0.14479809 -0.060826093 0.08037325 0.0586899
because 0.009299726 -0.0019182875 -0.034221005 0.03501944 -0.026179831 0.064700946 -0.019580502 -0.020931808 0.058375586 0.0561227 0.043344133 -0.046710666 -0.015280046 -0.005582511 0.0025052077 0.0018296217
how 0.0008140236 -0.081676655 -0.07043954 0.038136955 -0.080566324 0.027811697 -0.041442946 -0.015592372 0.0054335645 -0.0031505497 -0.0114553375 -0.040302634 -0.08103166 -0.014867989 -0.018944416 -0.047772586
him -0.011941729 -0.007860584 -0.037919708 0.029788027 -0.0030517504 -0.016338281 -0.0054689897 0.040742394 -0.035882737 -0.025235888 -0.0460743 0.0060454053 -0.011605883 0.021014525 0.022222726 0.021281403
most -0.00697339 -0.0049745967 0.010047111 -0.06494575 0.10479307 0.06678384 0.014674381 0.016303165 0.04117951 -0.057192523 -0.03235254 0.09146395 -0.07884543 -0.039895672 0.019959796 0.018553404
don't 0.048156887 -0.03125753 -0.03796676 0.044950254 -0.026321463 0.015463389 -0.042840157 -0.0016927689 -0.03421834 -0.019966118 0.04119497 0.023164842 0.0035741252 0.09843762 -0.047871854 -0.063499965
made -0.035521146 -0.024389774 0.033630192 0.015250516 0.05987661 -0.003260602 0.01426181 -0.019388108 -0.04228703 -0.012438286 0.0011789396 -0.00019747071 -0.04488706 0.044510968 0.06652978 -0.028400363
its -0.009432449 0.070094325 0.047720864 -0.069314964 0.04091637 0.056067046 -0.021427678 0.05268053 -0.13608427 -0.06399663 0.095261514 0.0077789105 -0.10947764 -0.073666245 -0.013832332 -0.029312883
then 0.053514373 -0.015426636 0.07982624 -0.041472025 0.014513535 -0.050478317 0.03993911 -0.04679406 -0.048541468 0.02687584 -0.07963271 0.03338281 0.05368697 0.08070068 -0.018169407 -0.07453861
way 0.0026304307 -0.057553936 -0.011933567 -0.06519777 0.021690786 -0.011460936 0.043236073 0.03327643 0.08518291 0.021151472 -0.05423891 -0.030523922 -0.060729567 -0.012988155 0.021750743 -0.0458332
make 0.029337527 -0.041517977 0.008812104 0.05229033 -0.07745736 0.0113759 -0.077311106 -0.07340448 -0.06525238 -0.02178604 0.03485219 0.0039047603 0.08384352 0.0056373486 -0.044306286 -0.019269837
them -0.012089643 0.0073511954 -0.017315626 0.028611219 0.0407807 0.038136303 -0.025119096 -0.016137451 -0.04221572 0.0028296383 0.0009277794 0.018923938 0.076409325 0.04943337 0.0580348 -0.011229651
too -0.02877434 0.0014878876 0.023095548 0.04911218 -0.052174773 -0.0031479343 0.0030101119 0.034134146 0.017446125 0.031049546 0.07092295 0.024777805 -0.07584768 0.029396325 -0.021102296 -0.0331499
could 0.059756383 -0.009435501 0.028357593 0.06246754 -0.060118586 0.003778813 -0.028722966 -0.026385961 -0.014165358 0.021103306 0.050488546 -0.0011684261 -0.022638453 0.03546102 0.00048303694 -0.08576948
any -0.0050950274 -0.04982247 0.023861798 0.0243641 -0.055176266 0.057950813 0.012220416 -0.078643434 0.017450225 -0.046482917 0.03210709 0.048952468 -0.07046719 -0.0060071694 -0.1060279 -0.0975503
movies -0.03218035 0.042612795 0.055432197 0.063517064 -0.011260039 -0.025677307 0.103333704 0.060990527 0.0034463943 0.014205499 0.027644254 0.0107442 -0.034035366 0.011467244 0.01701078 -0.02597865
after 0.030392086 0.022896728 0.027500084 0.020776805 0.028898599 -0.047705196 0.012556662 -0.06210075 -0.002685593 0.03437959 -0.015546955 0.021148123 -0.0042628236 0.042390313 0.007013318 0.004943671
think -0.041874364 0.006917303 -0.060515128 0.010125505 0.023945814 0.07465382 -0.0048542554 0.052377243 0.062370032 -0.03197668 -0.018989014 0.013906207 0.042217154 -0.062426884 0.018996203 -0.048521545
characters 0.04096278 0.0041944347 0.017874321 0.009438935 0.04332837 0.027286122 -0.050178424 0.02531526 -0.07792444 0.08293882 -0.013909685 0.026671886 -0.118574455 -0.038777653 -0.0720707 0.00782033
watch -0.07054577 0.0899373 0.016816782 -0.036967732 -0.00029209105 -0.0062052333 0.023933051 -0.0054738643 0.054869246 -0.054032836 -0.05535804 -0.027812049 0.0111197615 -0.08791905 0.015449398 -0.017426364
two 0.0556617 -0.011613185 0.04357622 -0.0036415914 0.051964365 0.039197978 -0.08794612 -0.0061044 -0.02654414 0.08577947 0.0043357625 0.0007244368 0.025344728 0.0016100132 0.030454565 0.022308988
films 0.06888103 -0.04215759 0.03309349 0.07215291 -0.06145383 0.009544399 -0.03999832 -0.04060602 0.07172427 0.015676282 -0.059886213 -0.013178961 -0.0041887676 -0.014580102 0.052556705 -0.06381019
character 0.015087737 0.009252928 0.07037307 -0.06611931 0.047072515 -0.006047337 0.0052759233 0.013457303 -0.10969076 -0.038087342 -0.04479517 0.10635196 0.0031679168 -0.0047942833 0.007902139 -0.029672276
seen -0.025660278 0.10097711 -0.04571945 -0.049854845 0.088146225 0.041300002 -0.033940807 0.053093392 0.10167648 0.030366432 -0.0039119655 -0.0029280146 -0.0079251705 -0.010287872 0.030872183 0.08418791
many -0.0494379 0.00019430355 -0.020769991 0.007980107 0.026161516 -0.02719205 0.027052185 0.038912024 -0.10603077 0.0044680075 -0.01335229 0.041359827 -0.081002265 -0.050878935 0.05774364 0.039081182
being 0.018908694 -0.005941459 -0.024297623 -0.0003331926 0.050320704 0.0113361925 -0.007984997 0.059879616 -0.0096509475 -0.012672108 0.0027527201 0.019615402 -0.011877925 -0.0100984005 0.022356974 0.0122714
life -0.058982003 0.028549362 -0.045624863 -0.048653647 0.06861377 0.036416404 0.018956626 0.028599285 -0.046994675 -0.037470613 -0.0070573376 -0.17572494 -0.04165399 -0.039405573 0.0025446045 0.06991745
plot 0.10567209 -0.02306558 0.030494027 0.0020313144 -0.00902624 -0.01943406 0.009179492 -0.026509108 -0.013190015 0.046172112 0.029833267 -0.011261155 -0.027395036 0.05705947 -0.045644168 -0.08412248
never -0.014372278 0.028814433 -0.006244594 -0.007623296 0.009555349 -0.010580114 -0.03620378 -0.051284675 -0.017763518 0.03406979 0.055772137 -0.108786345 0.05972463 -0.02515833 0.033400554 0.024550704
acting 0.069373794 0.0063848835 0.045062885 -0.039650247 -0.0043244916 -0.043755114 0.06495162 -0.049566902 -0.0065950085 0.030944968 0.010981574 0.049270578 -0.0743289 0.003330234 -0.100250386 -0.04349117
little 0.018410902 -0.014725545 -0.044164285 -0.03212608 -0.030628907 -0.04167018 0.052589163 -0.02144986 0.010238581 -0.011920744 0.03766659 -0.10231929 0.019525545 0.01166252 0.037393533 -0.009583074
best -0.099074356 0.1148588 -0.013201009 -0.118604794 0.08861575 0.008670639 0.0731311 0.07926862 -0.09261195 -0.08807079 0.037516903 0.07100982 0.054936644 -0.09177637 0.11963251 0.08019037
love -0.07496693 -0.003221872 -0.054130927 -0.018381553 0.066707335 -0.03398395 0.08839095 0.033447795 0.039938804 -0.06640645 -0.028925808 -0.016193157 0.07788061 -0.05473253 0.051268373 0.044565957
over -0.017315554 -0.04702447 0.031183958 0.031854745 -0.051006656 -0.040318243 -0.021323416 -0.040001567 -0.012416728 0.024865493 0.035415523 0.04814934 -0.00014892651 0.08057829 -0.045174826 0.0072637317
where -5.616717e-06 0.00035619078 0.008602531 0.034044977 -0.008661979 0.047068983 -0.015784169 -0.01072096 0.006205093 0.0057197204 0.05270585 -0.10829569 0.036312412 0.023971574 0.033008333 -0.028384829
did 0.051378015 -0.043030366 0.040426556 -0.005355612 0.060171288 -0.026816476 -0.0102428235 -0.1113619 -0.059956223 0.032976896 -0.07205059 0.0071775164 -0.06352046 0.04866637 0.030525524 -0.0131039545
show -0.008414277 -0.015855929 -0.008458152 0.012759694 0.045878906 0.009716339 -0.046502993 -0.051724616 0.0046947603 0.00017884192 0.010066003 0.025708862 -0.0947776 -0.03968334 0.051645637 0.036468163
know -0.008932975 -0.019380149 -0.061109435 -0.010815147 0.037176248 0.04572482 -0.030692752 -0.03267904 0.037629623 -0.017614964 -0.07660297 -0.076033466 0.064794116 -0.04140004 0.037498962 -0.027199458
off 0.070065476 -0.0397184 0.0045985547 -0.04872108 -0.047115482 0.006664037 0.042329054 -0.021659134 -0.07616614 0.047455467 0.037847206 0.04757645 -0.07316452 0.05219791 -0.009548798 -0.076291315
ever -0.034493104 0.018802445 0.044486195 0.011177869 0.034167834 -0.015254469 -0.032937463 0.03496634 0.056263957 0.07334401 0.029583924 -0.06751969 -0.08639857 0.04968604 0.036482166 -0.06087023
does 0.013545862 0.0010901953 -0.008156715 0.011246793 0.037905294 -0.0028661382 -0.04120594 0.025819842 -0.06666578 -0.03217807 -0.047457602 -0.0057563637 0.032307025 0.03801871 -0.07956234 -0.031226113
better 0.061209466 -0.044655528 0.007014987 0.06768317 0.033753995 -0.025895873 -0.018789988 -0.008924156 0.01460773 0.027268903 0.021740353 -0.020043172 0.047101226 -0.012460697 -0.03814421 -0.07602729
your 0.055730455 -0.03987445 0.05100835 -0.07691292 0.049592424 -0.02271664 -0.01007043 0.0701393 0.0038665065 0.042238858 -0.07022868 -0.02746889 -0.02684404 0.053204324 -0.021657383 -0.01749787
end 0.06677426 0.015793288 0.03736606 0.0079573365 -0.025806235 -0.011479391 0.028789941 -0.010860014 0.003522005 0.037683863 -0.030347947 0.03824808 -0.05254203 -0.014685065 0.011926324 -0.052300632
still -0.067366116 0.074026376 -0.025312852 0.03305191 0.0751151 0.034288097 0.07755978 0.0063977023 -0.17611843 0.03593328 -0.019539908 0.092689194 -0.15039213 -0.05132199 0.07662642 0.024274327
man -0.025096348 -0.020175744 0.033400178 -0.065281905 0.03408515 0.049364783 0.054811053 -0.025787273 0.013780574 0.051727142 0.016122948 -0.022458587 -0.06593697 0.026967378 0.01425788 0.042572923
here 0.032588016 -0.07523489 0.003692679 0.008129316 -0.05757254 -0.08634263 -0.04572407 -0.0016625425 -0.0002034878 0.014235684 -0.014019108 -0.0030146104 -0.003910476 0.024825418 -0.093711354 -0.03776345
these 0.022129418 0.05519953 0.039221894 0.016566949 -0.022159133 -0.041608535 -0.00049009174 0.029850729 -0.01508206 0.04664647 -0.048091684 -0.013206829 0.033064257 0.024960678 0.008222451 -0.051797953
say -0.027808264 -0.059009854 -0.029143881 0.009150371 -0.025800107 0.022092815 0.05671067 -0.025616888 0.030389585 -0.027349707 -0.010461423 -0.13204595 -0.021024501 0.0022334442 -0.04592122 -0.023795687
scene -0.0011745708 -0.022876129 -0.00054222095 -0.023459807 0.012873422 0.015273485 0.0626649 0.044717766 0.0013135194 -0.042825844 -0.02470449 0.094399534 0.023297578 0.038505025 0.0030999975 -0.04598349
while -0.03527426 0.00092670124 0.002072232 -0.048752308 0.010164983 0.076940514 0.05899311 0.009148538 -0.010434661 -0.022851525 0.025821948 0.029553916 -0.053695492 -0.023981854 0.040047586 0.053687703
why 0.07567801 -0.09987354 0.03997937 0.045954984 -0.032967307 -0.11345774 0.059861362 -0.026877273 -0.043588374 0.03239318 0.10349455 0.0862069 -0.002912185 0.07983306 -0.057466626 -0.0683119
scenes 0.012456922 -0.038247723 0.004809915 0.038524125 -0.03361872 0.020805659 0.031077692 -0.005191454 -0.04411337 -0.064076245 0.12026263 -0.008286613 -0.051880375 0.0030674078 -0.023725953 -0.022232287
go -0.03922066 -0.07007858 0.045166783 0.033470348 0.0076535363 -0.048370916 -0.003381814 0.0297401 -0.07078804 -0.0065319105 -0.066723965 -0.059226587 -0.07340984 -0.01396275 0.0029929478 -0.013809027
such 0.03294651 0.018658247 0.025851041 -0.029833239 0.01475533 -0.07355443 -0.039327603 -0.09472493 -0.03085051 0.043789286 0.03900862 0.05023209 -0.15490033 0.02025237 0.015180938 -0.033936854
something 0.025488826 -0.043045316 0.0012720588 0.007862614 -0.046878815 0.036011823 -0.01816963 0.025890669 -0.055662498 -0.052298587 -0.0038299542 0.08448136 -0.034933005 -0.011215648 -0.048058186 0.056369275
through 0.023145484 -0.008695008 -0.0056409016 0.029188173 0.036000833 0.062017553 0.040775128 0.010185229 0.013802699 -0.006837547 0.039540417 0.09614498 -0.02188608 0.043096732 -0.045183666 -0.07168732
should 0.021899367 0.011566621 -0.068705484 -0.023422258 0.000581851 0.011083368 -0.036936324 -0.012081496 0.026582493 -0.050073825 0.012608229 0.10524078 -0.094776176 0.048854664 -0.024660705 -0.005652154
back -0.03392745 0.066781595 -0.007874196 -0.03151984 -0.0016034602 0.052141707 0.016365994 0.022408389 -0.031333786 -0.019442545 0.06294745 -0.011076879 -0.107134126 -0.018817095 0.0041144975 -0.032620896
i'm 0.08480779 -0.05029407 0.040184148 -0.025745435 -0.010612335 -0.01945634 -0.10877866 -0.056761973 -0.04388918 0.012888314 -0.051707372 0.07539718 -0.07342377 -0.0048664166 -0.0750715 -0.05097571
real -0.040432207 0.016919201 0.05621834 -0.023982266 0.0047157663 0.0022133715 -0.03461175 0.011302192 -0.046264123 0.05175831 -0.039225545 0.018728333 -0.035008036 -0.047700915 0.012805189 0.03230861
those -0.013716819 -0.033028197 -0.061594386 -0.07354827 0.020497147 0.032695558 0.012309871 0.036708537 0.052781284 0.04540491 0.04616088 -0.051121764 0.050811168 -0.01771306 -0.0018396607 0.012018475
watching -0.018919695 -0.0101595875 -0.034755748 -0.02440613 -0.066791385 0.102673024 0.06753599 -0.042564567 -0.07246199 0.036415264 0.08011037 0.07028564 0.060746342 0.008393325 -0.062118784 0.025203547
now -0.008505593 -0.05835516 -0.0032549156 -0.025402505 -0.022719044 -0.00049885456 -0.0028380228 0.06089324 0.030945525 -0.057544164 0.0010050688 0.097863846 0.026120244 -0.025523748 0.00030855485 0.03725686
though -0.0080006225 -0.0013113958 -0.026213754 -0.039581534 0.02184368 -0.05044941 -0.0485215 0.031753626 0.05824929 0.00407699 -0.02009153 -0.09426015 0.05464751 -0.047689892 0.040890403 0.038034465
doesn't 0.08634556 -0.04424607 -0.017590992 0.06216359 -0.1005935 -0.03308084 -0.07493643 -0.04022446 -0.024306292 0.06682225 0.08319005 0.06224963 0.0468743 0.042859644 -0.07675607 -0.038855772
years -0.01103933 0.00030881184 -0.07134266 0.014887461 0.019762274 -0.044013675 -0.07285437 -0.0053463285 -0.05752587 -0.0038703359 0.037252557 0.02915848 -0.054149687 -0.046223804 0.021037087 0.012558968
old -0.045779444 0.02084098 0.017629493 0.028946122 0.039261896 -0.0069998517 0.00014262853 0.016489929 0.030078053 0.022040067 -0.029979022 -0.05087584 0.013869491 -0.00092982233 0.0013387324 0.06409706
thing 0.010708922 -0.05499495 0.04505282 0.042653404 -0.015629172 -0.047609244 -0.03850779 -0.058434267 -0.031325504 0.04833749 -0.01668098 -0.043557253 0.06510196 0.0509356 -0.10489424 -0.08571005
actors 0.07314853 -0.013183911 0.05051159 0.024147062 0.008422382 -0.0008186252 0.08948423 0.026483247 0.0009214594 0.03201364 -0.0184569 0.03345442 0.018486042 0.029438639 0.019095926 -0.051232897
work -0.015239859 -0.030807508 0.012809847 0.11604869 0.04510621 -0.0015716625 0.015564223 0.03052623 -0.06672491 -0.034854304 0.08519294 0.019883553 -0.15854962 -0.076594554 0.03135313 -0.017060947
10 -0.041865293 0.0021177612 -0.08896417 -0.051778924 0.13320073 -0.012862163 0.038570143 0.02973595 -0.26096293 -0.12862274 -0.004330041 0.25518325 -0.258794 -0.097644314 0.085623994 -0.026602715
before -0.03578999 -0.011115867 -0.004804256 0.011651811 -0.011354545 0.031034062 0.062344495 0.014379272 0.041071117 0.024299897 0.02527695 -0.037158467 0.0074569555 -0.02840636 -0.02195336 0.029098883
another 0.011177044 -0.08197962 0.00647208 0.08395053 -0.0064034886 -0.010823229 -0.010779261 -0.028170893 -0.0423971 0.060853437 0.0026308347 0.0210457 -0.015408585 0.019554358 -0.016078454 -0.012340955
didn't 0.03139626 -0.032076698 0.039702244 0.017291168 0.02480424 -0.040372044 0.038194165 -0.09727982 -0.011312608 0.052251123 0.010454353 0.019059649 -0.0076916027 0.04634983 -0.06819263 -0.004816074
new 0.004457514 0.005516366 0.050352875 0.025942113 -0.03895671 0.043399505 -0.031413622 0.043139603 -0.060784213 0.09324718 0.08806398 0.10793136 -0.17351548 0.026406575 -0.0019306826 -0.044779856
funny 0.048927177 0.09245797 -0.07465888 -0.059607364 0.006764563 -0.013536118 -0.024312165 0.039667584 -0.00986159 -0.03477439 -0.026548035 -0.029431868 0.07890929 -0.05160402 0.06734057 -0.02059888
nothing 0.102373615 -0.0328738 0.082876444 0.12525186 -0.1742628 -0.06573369 -0.15237562 -0.04584644 -0.13973793 0.110780515 0.07221582 0.01039325 0.06509155 0.10890641 -0.12924702 -0.029550452
actually 0.019262033 -0.003879047 0.029910533 -0.016257605 -0.07698753 -0.05726588 -0.061282907 0.032791216 -0.0024567568 0.052334707 0.005444728 0.00025308304 -0.0110334 0.057897013 -0.07444655 0.005497114
makes -0.09699891 0.025198521 -0.009424958 0.021198167 0.009611943 -0.009053506 -0.008519294 0.061078466 0.11880961 -0.08788616 -0.046868492 -0.02038101 0.04707448 -0.0073822765 0.07219536 0.08236348
director 0.02311258 -0.025472198 -0.0114533445 -0.030474422 -0.059721995 -0.032369107 -0.051129274 0.015532291 0.03316796 0.03193504 -0.01352121 0.025203396 -0.0321501 0.044202782 -0.03884594 -0.09220468
look 0.029001392 -0.010002649 0.027389178 -0.00088968006 0.046082053 -0.044142157 -0.02737553 -0.0030317523 -0.056333203 -0.028221648 -0.049361892 0.021193353 -0.008531467 -0.011565377 -0.090360016 -0.007205491
find -0.02740777 0.01907373 -0.09795184 -0.019942371 0.0646582 0.00936379 -0.004353788 0.015377769 0.102987975 -0.02710299 -0.008302793 -0.030579017 0.068656646 -0.06539797 0.045430865 0.08188839
going -0.03362124 -0.0011026402 -0.091372766 -0.02410438 -0.019460939 0.04676433 0.04413442 0.030320894 0.079874456 -0.004055169 -0.04530635 -0.006062602 0.042659614 0.0054072696 0.00843657 0.009954486
few 0.010162912 -0.012764247 0.029619377 0.015459484 0.004181509 -0.02626898 0.038680084 -0.0033714268 0.015504738 -0.014889629 -0.024940165 -0.044419225 0.04393814 0.0391678 -0.020444673 -0.030367576
same 0.020277947 -0.028794996 -0.038342845 0.020999359 -0.04849958 -0.0110936975 0.0005181844 0.0202935 -0.0795655 -0.018351447 0.043851264 -0.012294093 -0.105572894 -0.027398821 -0.0014867419 0.02234091
part -0.007213809 0.022864027 -0.0005136265 0.032042634 -0.026850186 -0.044398416 -0.030297967 0.017131157 0.0315209 -0.040044688 -0.076789096 -0.002364299 0.05522769 0.032044463 0.012221106 0.007856992
again -0.040895563 0.041963324 -0.038069528 0.050064918 -0.004172143 -0.014177097 0.041492358 -0.008936453 -0.02660011 0.030337341 -0.014636718 0.04673397 0.0072145285 -0.03323994 -0.009559991 -0.023257965
every -0.052605487 0.06035993 0.024959935 0.01015511 0.025937088 -0.03111888 -0.010738226 -2.6613841e-05 0.043037716 0.009234099 0.08232936 0.07771381 -0.014592588 -0.016922906 0.059092376 0.049148314
lot -0.036636934 -0.02790395 -0.04832174 -0.07307434 -0.008865468 0.0030328797 0.0025226816 0.0733295 -0.008914579 -0.034083653 -0.080661744 -0.015167971 0.076035656 -0.06776188 0.019517018 -0.0013022833
cast -0.03708617 -0.013356359 0.0660414 0.03788358 0.08093558 0.07490425 0.0028122885 0.008660643 -0.08495845 -0.061857898 -0.02736372 -0.008007153 -0.050681494 0.028958136 0.06010602 -0.024823492
us 0.011633855 0.019693034 -0.071687914 0.06591407 0.00416578 0.037527308 0.035675555 0.0020569318 0.0022950245 -0.06531403 0.03327189 -0.0026094783 -0.011148212 -0.016450748 -0.029540578 -0.016424555
quite -0.038228936 -0.014561305 -0.052282024 0.0008538307 0.00795297 0.0047200643 -0.009354919 -0.014069082 0.01455259 -0.058092188 -0.06543343 -0.05340778 -0.0547698 -0.04214257 0.03130672 0.09347461
down -0.031800903 -0.020217702 -0.023587342 -0.03397465 -0.005240611 0.015306986 0.059900586 0.0076136566 0.063062325 0.016513186 -0.09564868 -0.04433133 0.025663266 -0.02467838 0.015024055 -0.004597343
want 0.0025164005 -0.047585405 0.050094653 -0.035711136 0.0055586244 -0.07849607 -0.12200684 -0.007037146 -0.0020122414 -0.004858436 0.018323848 0.024220334 -0.09320231 0.049551953 0.0019363918 -0.06337241
world -0.07381432 -0.0240114 -0.03085677 -0.057308756 -0.010347221 0.0587916 -0.0023592112 0.048342235 0.059571903 0.027562987 0.028466105 -0.023984328 0.048407137 -0.020843571 0.056168262 0.07250748
things -0.050261978 0.088650115 -0.07571611 -0.077863105 0.003929855 0.05538838 0.062377006 0.07157372 0.09190236 -0.03839464 0.049828593 -0.09567139 0.024240505 -0.056035817 0.0015064664 0.011248278
pretty 0.06305867 -0.0267122 0.03551327 0.0901023 -0.014420364 -0.045012742 0.037337065 -0.032775603 -0.063417464 -0.0034849101 -0.007632296 0.021285314 0.010380344 0.011132456 -0.007914761 -0.0881678
young -0.07353831 0.03797464 -0.04697073 0.0301581 0.073185176 0.01627097 0.0007086054 -0.02759964 -0.048267517 0.006295951 -0.004605629 0.096548535 -0.103385486 0.012202742 -0.0029222337 0.064924255
seems 0.051218614 0.017424991 0.04868448 -0.038339537 0.0071513928 -0.043746445 -0.049688406 0.00953164 -0.07442826 -0.046528064 0.040381055 0.040642954 -0.0459771 0.06590926 -0.041350026 0.01669113
around -0.055388797 -0.028997704 -0.065328084 -0.008208763 0.037959374 -0.019987501 0.03746196 0.019272434 0.08008199 0.026899772 -0.062141087 -0.046912752 -0.0076217107 -0.017993981 -0.028336653 -0.04145629
got -0.022885332 0.028311506 -0.061644692 -0.06675656 -0.045801427 -0.033302937 0.06182034 0.028620575 0.012451426 -0.010239207 0.017326841 0.02190225 -0.046870444 -0.06670558 -0.025473224 0.04135048
horror 0.047127843 0.015131812 0.0015212325 0.02104901 0.0068667517 -0.03210888 0.047330104 -0.020606318 -0.0002090331 0.07323186 0.026917934 0.004430066 -0.112103984 0.017729169 -0.056772128 -0.09012404
however -0.029809557 -0.006782562 0.03232064 0.017929437 0.046411313 -0.0028398773 0.039817486 -0.015872711 -0.030795587 -0.0027813315 0.011181073 0.023694254 0.06420173 -0.0054700924 0.0041240775 0.019556655
can't -0.0057080975 0.012104858 -0.0345607 0.059090428 0.0042639025 0.071731545 -0.00097370084 -0.056300435 -0.035671454 0.07471218 0.038361922 -0.04278156 0.046074647 -0.0011621948 -0.06246712 -0.01654756
fact 0.05171284 0.029697856 0.0033464192 -0.017944165 -0.031880636 -0.038310308 0.02733649 -0.0044812853 -0.032587722 0.005796595 -0.017161619 -0.015854439 0.10062546 -0.023582283 0.0025518774 -0.005483805
take -0.0045559704 0.030356575 -0.026198447 -0.08800728 -0.013535326 -0.014645244 -0.05167513 0.016014067 0.051121596 -0.02653401 -0.050264712 -0.030735156 0.065570265 -0.021101614 0.02137403 0.0764273
big -0.05390649 0.08924317 -0.040962096 -0.021522561 0.0077189235 0.057910237 -0.0034519515 -0.043903276 0.06316323 -0.06042505 -0.02141093 0.08217405 0.06980738 0.010080097 -0.004486574 -0.03613918
enough 0.07363728 -0.018217865 0.116707645 0.012701395 -0.02777302 -0.08149771 -0.023437895 -0.039445423 0.00380577 0.06260089 0.01136248 0.02810563 -0.0020167565 0.122683965 0.0038684607 -0.033368677
long 0.06800712 0.030217983 0.051454928 0.030586986 0.020007145 -0.06479057 0.0060528233 0.0037675959 -0.014941374 0.0021672037 -0.04493648 0.051949445 0.09845871 -0.027737234 0.023590058 -0.01493457
thought -0.06796227 0.060392514 -0.03857701 -0.044956736 0.060482513 0.0024731648 0.0051469714 0.049307495 -0.04975347 0.038608525 -0.036672696 0.10032604 0.067031786 -0.042087737 -0.01005344 -0.0036814548
that's 0.027900392 0.03832035 -0.053432256 0.012410089 0.052990474 0.04285355 0.0305139 -0.03526635 -0.029008154 0.045936827 0.012115595 0.016376955 0.014274058 0.013993335 -0.049986586 0.04063639
both -0.016050503 0.044720676 -0.11079886 -0.010129023 0.059908606 0.051408082 0.050292164 0.08080128 -0.025596453 -0.070018455 0.08672073 -0.0003448334 -0.10219747 -0.11863402 0.061387546 0.04595478
between -0.028985543 0.010320269 0.0027603817 -0.049084276 0.009303464 0.027882319 -0.03388493 0.008711171 0.023258861 -0.004826215 0.007573475 0.13152683 0.0044919075 -0.016935097 0.040505193 0.026846731
series -0.015594481 0.041854504 -0.036241423 -0.009155571 0.004324595 -0.016507955 -0.03661484 0.021858482 -0.06096641 -0.03751785 -0.0030576615 -0.06380752 0.0026891732 -0.052183185 0.024148664 0.04100847
give -0.022406781 -0.00049576396 -0.05500092 -0.034606718 0.052044295 0.034661654 0.053773616 0.01154024 -0.049901184 -0.044427544 0.031799257 0.048299547 -0.0020665347 -0.030623274 -0.009610339 -0.02090956
may -0.081397064 0.014881287 -0.026373992 -0.039669853 0.041353248 0.06704017 0.046142038 0.041197255 0.032460995 -0.05044129 0.05937818 -0.02995484 0.016151542 0.0007572607 0.066597454 0.055298515
original 0.069787614 -0.0999161 0.098125994 -0.008871573 -0.015983585 -0.053671315 -0.04789006 0.01880059 -0.008790732 -0.02065152 -0.013713922 0.07741131 0.016689382 0.029810881 -0.0272597 -0.07659279
own -0.02574503 -0.024449145 -0.063601024 -0.031194592 0.04615192 0.0525926 0.058900896 0.0081799 0.04353604 -0.032907873 0.044311095 -0.028704595 -0.010809711 -0.053963322 0.07112231 -0.018689578
action -0.0100003835 0.01629739 -0.044883937 -0.03196379 0.044723276 -0.0014065972 0.03412888 0.045658298 -0.019853367 -0.00063070166 -0.056758963 -0.036380485 0.056863315 0.03754393 -0.009835824 0.017615458
i've 0.041935783 0.06552383 -0.04886892 0.071146406 0.012230743 0.029103952 0.024344837 0.024786651 -0.0189654 0.0018027303 0.02256978 0.01520891 0.009225 -0.00094408076 -0.016168687 -0.0383061
right -0.09099564 0.023756854 -0.03733342 0.032150943 0.08485217 -0.0018073391 0.0036933837 0.02311862 -0.007867529 0.05551273 0.006567442 0.045920387 -0.13408174 -0.032163035 0.13415328 0.044455104
without -0.028854042 -0.011272984 -0.03562174 0.018702168 0.035543006 0.046691917 0.00886889 0.0005763777 -0.03785728 0.034725018 0.00204619 0.035830464 -0.11905299 0.0035144044 -0.009284535 0.031448547
always -0.0023933828 0.031960707 0.023160193 -0.057901964 -6.582295e-05 -0.054307967 -0.06710801 0.02537233 0.019683821 -0.030921826 -0.06960908 -0.026391203 0.07645797 -0.04614159 0.0009792066 0.030184457
times -0.02684296 0.038894847 -0.018520318 -0.043097552 -0.031231467 0.021743463 0.014981016 0.020330131 0.017564496 -0.05514394 -0.014203139 0.03743163 0.09401641 -0.050840475 0.0039580627 -0.0054039937
comedy -0.040443346 0.035206936 -0.011761676 0.059700657 0.030625215 -0.042866524 0.042825177 0.06050167 0.022488613 -0.03076404 -0.022274148 0.01374043 0.021347232 -0.01593543 0.020795977 -0.045913503
point 0.04849062 0.029530922 -0.019590301 0.10263036 -0.0153100295 0.007981867 -0.037923086 -0.0034779978 -0.04326744 0.035243686 -0.014755722 -0.04968294 -0.022651441 0.0003958036 -0.060254846 -0.020664468
gets 0.0062126163 0.022731034 -0.018364368 -0.047522545 0.051389005 -0.019416532 0.05068532 -0.05643242 -0.010901726 -0.075804055 0.027672106 0.018671257 0.010607539 0.033951074 0.035264455 -0.023755856
must -0.0039636767 -0.0053344667 0.029299995 -0.0005296924 0.0559358 -0.016705025 -0.018228881 -0.008139912 0.037923347 -0.034471218 -0.07227266 0.006052389 -0.02659149 0.017092347 0.02889458 -0.044476397
come -0.03288767 -0.010231909 0.01893132 -0.03942495 0.02200935 -0.029498333 0.009076142 -0.024395783 -0.043936 -0.04612111 -0.024245227 -0.047578678 -0.025710033 -0.0041607977 -0.045859307 0.02823808
role -0.030371308 -0.038910374 0.0024214084 0.015076217 -0.0045693866 -0.039432567 -0.0112350695 -0.031280413 0.020735592 -0.06371551 0.0050578667 0.078401595 -0.015471226 0.025629573 -0.0067738877 0.004351797
isn't 0.06508329 -0.018124703 -0.03042888 0.012659903 -0.09359208 -0.0311883 0.036214408 -0.046681516 -0.047011003 -0.0532316 -0.045981683 -0.021700552 -0.0009102713 0.030906653 -0.023148268 -0.050989628
saw -0.011301966 -0.0056950264 -0.01472043 0.080635905 -0.025474995 -0.04739633 -0.0055452515 -0.03107178 0.03326678 0.045504104 0.1025077 0.021039514 -0.02771672 0.0047990405 -0.016706958 -0.019850643
almost -0.04646729 0.019693661 -0.05209671 0.0033012903 -0.0057257987 -0.026192619 0.0047284965 0.014919154 -0.053047184 0.009440519 -0.0020812268 -0.0070971954 -0.073570654 -0.055130336 0.031213243 -0.021986883
interesting 0.07989218 -0.082610406 -0.018985612 0.001945916 -0.062261358 -0.047031842 0.011776501 -0.017651873 -0.027582936 0.02946933 0.014604407 0.037710045 0.04698943 0.0085166935 -0.04302037 -0.07728346
least 0.0825014 -0.071315125 0.061539743 0.05140968 0.02277742 0.0018871602 0.04083078 -0.0071182637 0.06441108 0.007873258 0.022639101 0.037863493 0.032426525 0.025488172 0.010172106 -0.083608486
family -0.110197574 -0.008690151 -0.02971309 -0.041822053 0.10343733 0.013211677 0.015230783 -0.01474249 0.023920313 -0.07409697 -0.009595567 -0.031923354 -0.013188221 -0.058148053 -0.004424019 0.008945531
done 0.032405782 -0.07151213 0.058551148 0.050072968 0.053069636 0.000861847 0.030404925 -0.06086655 0.010712176 -0.055472262 -0.08552536 0.012014081 -0.0007428415 0.013829203 -0.02721002 0.0054656034
there's 0.061817534 -0.04927096 0.0048910226 0.06466208 -0.05311044 -0.07902031 -0.007202092 -0.020817349 0.03231947 0.09227472 -0.04164089 -0.029347256 0.04276599 0.03647766 -0.025658876 -0.01781795
whole 0.0005695487 -0.018765984 -0.03256648 -0.007978092 -0.05091507 0.0028328719 -0.06147427 -0.06257663 0.044974003 0.0137860505 0.016132155 -0.06379984 0.050346047 -0.005161414 -0.09222018 -0.072193585
bit -0.02043855 -0.004654678 -0.09624476 -0.029737752 -0.038222697 0.013244395 -0.017555775 0.050269797 0.038132153 -0.06842821 -0.028017422 -0.10643131 0.015564509 -0.03147553 0.035846494 0.025267517
music -0.08689094 0.02365179 -0.007467519 0.07051847 0.045688625 0.0076198187 -0.029894773 0.011394583 0.00022668607 0.0025323748 0.036966626 -0.04853473 -0.04757692 -0.049418997 0.010795317 0.028078217
script 0.14417437 -0.09352127 0.11057094 0.098985694 -0.009239767 -0.028690016 0.043779254 -0.06643121 -0.0751946 -0.004860515 0.013644459 0.09774926 -0.03676774 0.09298217 -0.05920891 -0.069314264
far 0.07905816 -0.050538883 0.036585305 -0.016059596 -0.070139594 -0.067867845 0.03477498 -0.05436809 0.03510098 0.016915187 0.022065522 0.016211996 -0.04631125 0.083272494 -0.03654152 -0.054129347
making 0.054449778 -0.058006622 0.03167677 0.038255785 -0.02874081 -0.01792686 -0.07716584 -0.013604847 -0.058648307 0.03950154 0.036567964 -0.020136854 -0.0063858004 0.08903288 -0.12227773 -0.073242776
guy -0.0032886993 -0.04974356 -0.059705712 -0.012897482 -0.0116486065 -0.017196333 -0.030625122 0.045959033 0.028347738 -0.054006703 -0.055748954 0.010721527 -0.055990204 -0.0017956041 -0.026746966 -0.024673292
anything 0.024734596 0.016875377 -0.02193207 0.05500536 -0.008628373 -0.03617823 -0.017327417 -0.05501349 -0.02795316 0.06712143 -0.05164377 0.033458 0.0050258855 0.012090112 -0.067885034 -0.054293804
minutes 0.101654 -0.06981384 0.03546107 0.041960157 -0.09938405 -0.10337843 -0.008471366 -0.04193936 -0.04857799 0.09222389 0.015246973 -0.026870478 0.04019721 0.047417644 -0.04375099 -0.042279508
feel -0.04433548 0.023027755 -0.007971825 -0.05984455 0.06405655 0.009172748 -0.047441382 0.021776054 -0.075652294 -0.03134627 0.03096921 0.037475433 0.039908707 -0.0041498044 0.02923853 -0.021967296
last -0.001559169 -0.027127085 -0.006953699 -0.03191044 -0.007876443 -0.00912845 -0.02452265 -0.0020169583 0.06939911 -0.011196265 -0.03880699 -0.09713582 0.020953199 -0.05420106 0.006597558 0.038877696
since 0.013673606 0.014874243 -0.046488214 -0.051656112 -0.0060752816 -0.02927043 -0.010945584 0.03256775 0.012129721 0.049024068 0.04458948 0.002444696 -0.07535257 -0.062335063 0.049543962 0.002718004
might 0.032441515 -0.007182232 -0.019316496 0.023496699 -0.01807156 -0.09719466 -0.08118303 -0.07506627 -0.018899517 0.076719865 0.043541476 0.0015574975 -0.075700656 0.031959288 -0.11502282 -0.026723992
performance -0.010968503 -0.04541573 0.051379982 -0.02588392 -0.03964684 -0.087095335 -0.024904316 0.055899065 -0.11553545 -0.04427961 0.08985162 0.09042978 -0.025738075 -0.040764656 0.012838128 -0.03790025
he's 0.021527216 -0.045563236 0.06391469 0.019068856 0.01908655 -0.010397362 -0.04776095 -0.03428263 0.06431181 -0.024646757 -0.038322438 0.01660191 0.003476229 0.009798205 -0.010830474 -0.044957254
2 0.06770735 -0.09378201 0.07057279 0.026567603 -0.053306315 -0.06155134 0.041285586 -0.032916903 -0.072569504 0.012528716 0.0050308825 -0.087321706 -0.039264143 0.057973158 -0.07358464 -0.019082898
probably 0.06542693 -0.0012023968 -0.061030913 0.056755695 0.0043399534 -0.011951169 0.008505887 -0.044055037 -0.038191076 -0.031983428 -0.06724448 -0.09097417 0.0048210043 0.012712388 0.031284664 0.05017451
kind 0.05551047 0.024782185 -0.03792224 0.03344113 -0.014033301 -0.008451318 -0.07305162 -0.010697067 0.031042568 0.036537014 -0.055450227 0.07006411 -0.0017058138 0.041235294 -0.054386314 0.031863894
am 0.021066805 -0.032092977 0.0099096205 0.052884273 -0.01878602 -0.06730856 -0.0038775941 -0.10327596 0.036489867 0.03804799 0.01614326 -0.09257076 0.037504688 0.0073245424 -0.059197847 -0.056241065
away -0.008622826 -0.040848788 0.0028743907 0.02566008 -0.009749161 0.00043101085 -0.056963757 -0.053969964 -0.017676834 0.08407103 0.044070642 0.052376024 -0.039353598 0.004826876 -0.037269592 0.006810807
yet -0.0037942291 -0.04449003 -0.08222178 -0.010796509 0.04376336 0.0069426754 -0.037997156 0.02333127 0.032140512 -0.03909286 0.080166146 -0.017812263 -0.05627993 -0.03178629 0.014015085 0.016169604
rather 0.017419 0.019326955 -0.04014581 0.04054296 -0.036151744 -0.05532523 -0.07722426 -0.05219497 0.01973084 0.03531133 -0.04058057 -0.030429296 0.04948767 -0.03905018 0.034203548 0.06894072
tv -0.0332665 -0.04736986 -0.045208476 0.021941721 0.02401683 0.010228212 -0.06494894 0.016126705 0.02660402 -0.015118156 0.01328581 -0.074172646 0.014977595 0.017406024 -0.027085045 -0.015573606
worst 0.12554407 -0.119129054 0.12101473 0.15035515 -0.19179788 -0.13790491 -0.17205745 -0.19082695 -0.18434995 0.090436734 0.13400517 0.06654678 -0.104081884 0.19010226 -0.18955638 -0.1095032
girl 0.028475942 -0.025815448 0.012993957 0.03354015 -0.10575361 -0.08354082 -0.04020517 -0.022260128 0.025980221 0.0056774374 -0.03410762 -0.06955434 0.071234584 0.023498828 0.0021682603 -0.016330302
day 0.037291326 0.023133876 0.0155384615 -0.0050195744 -0.039869573 0.01738928 -0.005519433 0.0038220892 0.02110517 0.012685336 0.009661352 0.069746286 0.02122464 -0.018500237 0.06768565 -0.004342002
sure -0.0047428817 -0.022808172 0.029378932 -0.04012868 0.04866552 0.07556 0.049141787 0.08281463 0.075485684 -0.02375146 0.010706507 0.041673966 -0.028189685 0.060896482 -0.03595578 0.038441584
fun -0.067458 0.13815922 -0.077784225 -0.05054417 0.11753844 0.02256261 0.03820012 0.04494364 -0.022617595 -0.043549974 -0.06546202 0.027980316 -0.029763041 -0.07524297 0.0939389 -0.026610214
hard 0.06813001 0.017427605 0.026006684 -0.018258963 0.024652435 0.016235469 -0.06373574 0.023614414 0.049220473 -0.046414237 0.063180745 -0.03227435 0.005127934 -0.018674564 0.020102091 -0.002484872
woman 0.026717858 -0.08196808 0.043517135 0.066186324 -0.0068313205 -0.07465848 -0.032927983 -0.040878877 -0.014704107 0.06895667 0.037539262 -0.03363854 -0.00095117325 0.0044201287 -0.11886265 0.012861034
played -0.038045235 -0.07269894 -0.028468896 -0.008161045 -0.07840754 0.01823938 0.032649055 -0.022359155 0.09939482 -0.025184002 -0.029059289 -0.025042063 0.02458189 -0.018771103 0.023244465 -0.0037173817
each -0.042722613 0.10010419 -0.07379582 0.049081743 -0.03892425 0.03258721 0.010512469 0.09979696 0.022390708 -0.043753956 0.025393728 -0.084974155 0.07012542 -0.062745795 0.028758576 0.031223534
found -0.057282235 -0.0049365987 0.011587975 -0.002722219 -0.0011064053 0.034988344 0.023095343 0.021768736 -0.043366034 -0.04486881 -0.0019456812 0.08451955 -0.12776981 -0.04145917 -0.003965917 0.019812535
anyone -0.03740938 -0.021688312 -0.013857595 -0.015033351 0.046964005 -0.036930677 0.018940168 0.0107882125 -0.06840519 0.062534 -0.07789142 0.07699904 0.13072209 -0.014006838 0.004155473 0.047213186
having -0.02264576 -0.025089689 -0.08331481 -0.044062376 0.061846383 0.03889712 -0.017976824 -0.006818386 0.010808409 0.014145794 -0.004069496 0.005541129 0.02432382 -0.055767123 0.033910923 -0.0036974754
although -0.08294573 -0.08289396 -0.04456943 -0.015458529 -0.0041365223 -0.0018570437 -0.08664426 0.06300117 0.007602556 0.035365608 -0.0047222585 -0.08385899 0.037093405 -0.06466496 0.009199912 0.054118376
especially 0.0055228095 0.08823078 -0.013523766 -0.06676991 0.061492782 0.01517611 -0.02356311 0.09088535 -0.060284596 -0.063864425 -0.072189 0.017097529 0.0054945652 -0.06261422 0.05517481 0.05901984
our -0.0065231067 0.057611052 -0.078098506 -0.060018543 0.010420205 0.0067057116 -0.004512801 0.025978206 0.054639835 -0.0029536404 -0.09955606 -0.024810025 0.057887003 -0.0146289 0.08764941 -0.014877712
believe -0.0052019134 0.031447012 -0.0478669 -0.036349267 0.0370057 0.11737926 0.07403566 -0.001611215 -0.026894404 -0.0033108888 -0.07570832 0.06568094 -0.03890312 0.018216094 -0.002075652 -0.025941141
course 0.0027260466 0.020491444 -0.036968615 0.007920966 0.01610406 -0.023230007 0.04404419 0.059222482 0.01986608 -0.03802244 0.04293224 -0.07520175 -0.11498204 0.008043465 -0.019905549 0.042228375
comes -0.0024150247 0.10868077 -0.055920534 -0.04857216 -0.025872082 0.046600655 -0.015591447 0.044830386 0.030921444 -0.024228038 -0.03751292 -0.042056914 -0.059073858 -0.035666537 0.0664668 0.00407849
looking 0.05561387 -0.007830346 0.013414572 0.026275214 -0.07108804 -0.07927059 -0.020126957 -0.07035851 -0.006036993 0.02309972 0.006542744 -0.024124151 -0.019892408 0.09971271 -0.04747282 -0.021094497
screen -0.047317095 0.009989496 -0.020350495 -0.11208351 0.049358614 0.074051954 0.050943695 0.05522925 0.023041144 0.008731229 0.03925139 0.02773395 -0.06390865 -0.027690263 -0.02977745 0.06460753
trying 0.013117945 -0.09204509 0.01611678 -0.056695342 -0.013097503 -0.013404966 -0.004774856 -0.0014289282 -0.057861675 -0.0064938883 -0.06576861 -0.049039636 0.027986303 0.04865758 0.021140963 -0.06655739
set 0.027998503 -0.009860952 0.029462935 -0.019900655 -0.059803456 -0.040300116 0.013682161 0.04225705 -0.012021429 0.06989989 -0.010914238 -0.06796551 -0.08913387 0.06501959 -0.023048162 -0.07667846
goes -0.009806087 -0.090982884 0.0060037845 0.08699621 -0.06626385 0.022112558 -0.032244083 -0.020098861 -0.0020294527 0.022708537 0.013090109 0.08918141 -0.012511178 0.04959114 -0.053786207 -0.07220434
looks 0.032348793 -0.05456728 0.030075023 0.052905977 -0.057797883 -0.006401159 0.015644914 -0.063384965 0.0537867 0.040834703 -0.043471366 0.024942994 -0.00027427747 0.0805798 -0.07970671 -0.08636546
place -0.0061487798 0.007817207 0.010773159 -0.045571465 0.01850082 -0.064160846 -0.045285717 0.046810325 -0.051739007 0.02611067 0.062087275 0.034220576 -0.06232023 0.008688765 -0.013946911 0.024176337
book 0.10645181 -0.053354535 0.05973632 0.05359953 -0.034211148 -0.05306174 -0.004653781 -0.06966801 -0.006153122 0.0059429323 0.005081998 0.033287883 0.07546104 0.070334606 -0.036807522 -0.041998737
different -0.04991644 0.07976307 -0.00025876865 -0.015137107 0.042924948 0.025830012 0.051613204 0.024752969 -0.032586075 -0.023213895 -0.052829362 0.011819879 -0.023615018 -0.05468628 0.10136083 0.0168926
put 0.055326007 0.04304795 -0.016162427 -0.013209375 0.029069291 0.02927785 -0.020524288 0.011280185 0.0075076134 -0.021411117 0.008935725 -0.11393558 0.042040188 -0.03751647 0.0049132807 0.041571055
ending 0.060988437 -0.038464244 0.020876415 0.061754763 0.0070204483 0.015772955 0.007246016 -0.070483886 -0.04960878 0.03905689 0.05809398 0.022836596 -0.07455083 -0.022478601 0.030075561 -0.03380892
money 0.109861225 -0.06589723 0.04995757 0.05343417 -0.05002264 0.036252208 -0.08951641 -0.02957835 -0.07250221 -0.0032556534 0.060180146 -0.02485593 -0.007969401 0.1143704 0.00040722947 -0.077434264
maybe 0.059289932 0.0111975465 -0.0057216417 0.02931527 -0.03714442 0.0029304146 0.0241817 -0.015207452 -0.014138487 0.0025280465 0.00419142 0.049138505 0.067780554 0.02816468 -0.047290284 0.03800737
once -0.0028957909 0.014227915 0.019563379 0.06830752 -0.024577802 -0.0047113704 0.033938643 0.009457666 0.04517439 -0.08020152 -0.017240351 -0.09940831 0.09997486 0.03270173 -0.0020359228 0.0052847825
sense 0.046891503 0.0048976676 -0.016553754 -0.064170755 0.07483844 0.04362526 0.02374397 -0.042446855 0.02480256 0.025964897 -0.12519181 0.0055088773 -0.04740044 0.048122182 -0.049335614 -0.00060873205
reason 0.07101955 -0.050420858 0.08354641 0.055541176 0.0053036935 -0.0826514 0.009867021 -0.071820095 -0.007124314 0.0052630086 0.046295144 0.0082385875 -0.007888187 0.06766371 -0.018171115 -0.06915489
true -0.08885287 0.021088962 -0.067997135 -0.038908705 0.04428252 0.03509283 0.06411543 0.031028787 -0.039984453 0.00981042 -0.05437677 -0.07187501 0.0913592 -0.054143373 0.061836086 0.077955805
actor 0.069868796 -0.010274143 0.0274557 0.05409366 -0.010866395 -0.05112167 -0.013096575 0.013590125 -0.09662351 0.03137848 0.0063017746 0.11034546 -0.026325421 0.08000016 -0.10329151 -0.044370547
everything -0.02946505 -0.008954373 -0.05508903 -0.053474687 0.052820764 0.0342936 0.06533714 -0.013335604 -0.02607359 0.021395499 0.0026757966 -0.03183223 -0.031154066 0.02937263 0.048178423 0.06533284
wasn't 0.09420955 0.00093612727 0.07374942 0.0029738345 0.020776378 -0.05850121 -0.0002705791 0.023112534 0.013169555 -0.040561263 0.10294449 0.07588067 -0.09682801 0.09977697 -0.10040846 -0.105782874
shows -0.020372424 0.07480254 -0.065725446 -0.122124344 0.025569325 0.04043104 0.0862933 0.066873915 0.0056074588 -0.060474724 -0.0063540554 -0.07578236 0.038306374 -0.09494535 0.100489125 -0.0096446285
dvd -0.06287949 0.056916602 -0.047791217 -0.005219193 0.0706336 -0.006479885 0.06425178 0.007347853 -0.0447922 -0.060735397 0.06082359 0.025772912 0.001823375 0.0072911847 0.042024516 0.08192959
three 0.08920243 -0.03290371 0.021552393 -0.0031683543 0.017065533 -0.07354265 -0.024116306 -0.08540164 -0.06475161 -0.012283493 -0.0028139334 0.14857323 -0.110523224 0.0062979413 -0.026503745 -0.10434241
worth -0.06118016 0.014078727 -0.08656933 0.055263977 0.08307982 0.082250476 0.09710707 0.018099245 -0.08905033 -0.07186864 0.06192403 -0.0234581 -0.15721154 -0.005336598 0.09838879 0.11731509
year -0.015880179 -0.018602133 0.0203442 -0.0077942945 0.04178436 0.036254015 0.03128239 -0.017130753 0.036087215 -0.0050436663 -0.020161109 0.04418675 0.059791874 -0.031081341 0.018543063 0.0075751073
job -0.09797669 0.006914416 0.0056666587 0.047436174 0.059734024 0.0487337 0.07764543 0.010696224 -0.08567128 -0.058739834 0.06567052 -0.014457006 -0.13671368 -0.08987514 0.052753136 -0.0032362232
main 0.009886878 -0.010836402 -0.04974231 -0.012609125 -0.0136371 -0.021454135 -0.04524465 -0.00031469116 -0.02198204 0.020942125 0.017055081 -0.022309998 -0.088936895 0.07564438 -0.0025523838 0.020148406
someone 0.073984325 -0.055105068 0.07689275 0.0993049 -0.10293387 -0.059896015 -0.077457726 -0.12442347 -0.07590251 0.10980711 0.03918119 0.057172514 0.03710206 0.07082818 -0.05484058 -0.09309353
together -0.02871719 0.0702402 -0.0653872 0.018765137 0.04681358 0.097696215 0.10635543 0.09181027 -0.105204634 -0.08181391 -0.0293918 0.066607594 -0.066807635 -0.10875192 0.09872758 0.054104187
watched 0.0060993778 -0.07794994 0.06386438 0.07108592 -0.058616355 -0.089149214 -0.068843484 0.021945618 -0.06659545 0.08516721 0.07411968 -0.009527076 -0.0016640056 0.03915044 -0.09547809 -0.06160649
play -0.005501601 0.081180856 0.030761538 -0.053733986 0.005217155 0.07033678 0.08279021 -0.012537315 -0.0054727565 -0.05132465 -0.06186812 0.009431598 0.04459339 -0.045753144 0.07299127 0.014538284
american -0.011554675 0.06686223 -0.057337128 -0.03031688 0.009330817 0.04105004 0.059493817 0.012882208 0.0009619963 0.0020342944 -0.017446455 0.022017404 0.03430033 -0.046379417 -0.0005603665 -0.0230706
plays -0.01497766 0.00988609 -0.0060157897 0.0676877 -0.03948788 -0.08782249 -0.011527996 -0.059094384 -0.04108356 0.09053094 0.09963956 0.1130381 0.0020277004 -0.0074339854 -0.03134543 -0.035419464
1 0.10312549 -0.13467836 0.03617347 0.044021063 -0.14424361 -0.063242726 -0.10620834 -0.032590292 -0.06118092 0.04058692 0.08910817 -0.026046433 -0.06965679 0.09997915 -0.11870299 -0.08404297
said 0.03908078 -0.065952376 0.04908509 0.04779309 -0.061178952 -0.06479215 -0.031545766 -0.052214436 -0.018123113 0.07836887 0.08252551 0.039352372 -0.014281458 0.02907237 -0.031019768 -0.077200934
effects 0.023280272 0.018573212 0.068654425 0.07823727 0.03420017 -0.044943225 0.0082092285 0.02375061 0.03988772 0.0045047086 0.057740293 0.053649984 0.013601634 -0.0063520824 -0.086883396 -0.019191664
later -0.014622219 -0.053648774 0.04720171 -0.005084768 0.020124434 -0.06720073 -0.026838996 -0.04834499 -0.08248557 -0.020619282 -0.0405401 -0.03842564 0.009907097 -0.020575669 -0.0036336305 0.033376917
takes -0.015452742 0.061015084 -0.040899854 0.06790636 0.038561728 0.076320626 0.04303962 0.05054908 -0.039369345 0.01428106 0.04019315 0.005855245 -0.09524377 0.010921326 -0.009171449 -0.032287937
instead 0.07849186 -0.08576854 0.0989715 0.021017103 -0.02093218 -0.06457596 -0.062519185 -0.023159457 -0.030540735 0.059282146 0.03800595 0.066009685 0.105861716 0.06328462 -0.054643568 -0.078303255
seem 0.045260083 -0.08008343 0.094784014 0.069974 0.024989622 -0.030950034 0.005598285 0.00037204678 -0.017726159 0.006667048 -0.09087925 0.06392325 -0.013687467 0.048485033 0.022690993 -0.05159132
beautiful 0.0058057546 0.008605781 -0.043696478 -0.067713164 0.09188559 0.030486293 -0.011728924 0.060459647 -0.040100284 0.0068212776 0.15485632 0.020430978 -0.0001525054 -0.090487316 0.041121744 0.06960097
john 0.00460487 0.034517266 -0.004642217 -0.0147858495 0.027748358 0.026580676 0.04322077 -0.00299735 -0.013002469 0.018418934 0.07085965 0.077466376 -0.12017976 -0.012134681 -0.027342381 -0.017171536
himself 0.055936508 0.010851932 0.0007066451 0.001853761 0.034470893 -0.01488769 0.0033620752 -0.019897332 -0.013574854 0.06547859 0.050707728 -0.02680075 -0.03595107 -0.03585576 -0.034061573 0.015347745
version -0.029887315 -0.009599578 -0.054619662 -0.02194872 -0.0078972615 -0.03603689 0.012703171 -0.009802349 -0.1352695 0.00260281 0.030007152 0.02416101 -0.09527919 0.027677257 -0.0028197314 0.016507285
audience 0.061143905 -0.07329767 0.10142168 -0.035084 -0.04718449 -0.042871404 -0.05558795 -0.018479165 0.014421105 0.04570049 0.062797785 0.08788545 -0.039740823 0.0050108973 -0.039060343 -0.037865672
high -0.05526376 0.03625611 0.0012913173 -0.019551411 0.10277614 0.07245628 0.0005709917 0.0036749453 0.036507726 -0.029824909 0.030487351 0.049807295 -0.015445218 -0.025093803 0.029167404 -0.020641433
house 0.045525942 -0.0038645838 0.05883878 0.074648984 -0.03443097 0.044402696 -0.046837654 -0.02444507 -0.018888317 -0.05567117 -0.0030759089 0.035553396 -0.0020779246 -0.020954294 0.024313426 0.028884532
night -0.04030667 -0.031357612 -0.039514214 -0.004149438 -0.04838944 0.02561022 -0.046435654 -0.005804251 0.085767485 -0.07029284 0.022697588 -0.04095636 0.03527484 0.009360237 0.041034985 0.05662578
during 0.08024804 0.059162505 0.036884718 -0.042663224 -0.0046995934 -0.005997959 -0.0066461866 -0.058663957 0.013974351 0.027724527 0.014524091 0.017171253 0.013672495 -0.007167493 -0.014409851 -0.011890448
everyone -0.109178334 0.031847406 -0.039141893 0.009636215 0.068390734 0.08563842 0.09775769 -0.012147381 0.030577544 -0.031341534 0.036049247 0.08028444 -0.010078336 0.0055436906 0.041836433 0.025610719
left 0.035339247 0.05662911 0.050548732 -0.0135719655 -0.07286318 -0.001019407 0.09294675 0.033511437 -0.10320114 -0.03328455 0.08875122 0.08588179 -0.07180501 0.036774356 -0.055934843 -0.037178777
special -0.015715705 0.0553154 0.000858971 0.019271484 0.06390194 0.04528001 0.07932125 0.019963548 -0.09181579 -0.023566032 -0.028533936 -0.02415461 0.029382363 -0.023066115 0.04597445 0.052233763
seeing -0.0621622 -0.022747202 -0.03019851 -0.030005837 -0.034073927 0.020855539 -0.013188589 -0.02545101 0.056200363 -0.050838966 0.03277505 0.033569116 -0.014112474 -0.03450642 0.0041929176 0.087017715
half 0.09668955 -0.03577048 0.089467995 0.013307804 -0.076010995 -0.008917208 -0.0047247047 -0.000845236 -0.01697549 0.039971918 -0.038565535 0.039406177 0.032480277 0.062309504 -0.06495759 -0.017881721
excellent -0.11473577 0.1248637 -0.06131902 -0.1190833 0.11008661 0.085562624 0.049020514 0.08659142 0.06239039 -0.077994525 -0.06524754 -0.010371247 0.12280395 -0.08737307 0.07832305 0.071440086
wife -0.013619001 0.043199126 -0.0037570517 0.05445555 -0.011805492 -0.01745635 0.0051120333 0.03969573 0.052726917 -0.039170004 -0.038909145 -0.08659016 0.10244272 -0.034835085 0.012345716 -0.018737568
star -0.03167772 0.004522215 -0.007255997 -0.00846393 -0.04109338 -0.019212198 -0.051191725 0.023788802 -0.009709924 0.038648658 0.010048446 -0.05773681 -0.014727971 -0.005732317 -0.06572291 -0.0069914036
shot 0.03425751 -0.017889543 -0.032644622 -0.035329968 0.045613628 0.059891082 0.0018588793 -0.055163007 -0.054560486 0.031951863 -0.017278902 0.0046656276 0.014996461 0.055724394 -0.06382555 -0.10524442
war -0.026219172 -0.03211718 0.012099404 -0.007949705 0.024474459 0.017321356 -0.017620228 0.07220509 0.073805846 -0.050057787 -0.033552997 -0.07895461 -0.0040502553 -0.06945906 0.03707591 0.027239572
idea 0.08825976 -0.070188746 0.07179814 0.0047239037 -0.13598448 -0.054190204 -0.034729514 -0.10289858 -0.026870163 0.027701896 0.031111456 0.08363966 -0.006109309 0.07485636 -0.055255342 -0.051786833
nice -0.0046479017 0.029588943 -0.075907245 -0.06730744 0.03348273 0.042137288 0.023169708 0.0647575 0.020114053 0.009530987 0.014373974 -0.08703656 0.02199618 -0.04165412 0.04652369 0.0271648
black 0.05824088 -0.06684866 0.032777604 0.022769561 -0.015120472 -0.077186525 0.0041826605 -0.047799584 -0.0060950946 0.05233446 -0.046675064 0.04446912 0.045997936 0.076253764 -0.07551029 -0.0351373
less 0.04852548 0.039407026 -0.0049053603 -0.04449745 -0.020792605 -0.009227929 -0.02304862 -0.005865941 0.030271823 0.0074899364 -0.036765616 0.023609988 0.051604215 -0.046845984 -0.08240074 8.1710874e-05
mind -0.04550216 -0.023422135 -0.022763232 -0.0066727414 0.06838702 0.07115616 0.002603511 0.021868417 -0.02705063 0.0034876904 -0.0715656 0.004220984 -0.060069736 0.03443292 0.06664658 -0.030778525
simply 0.037505195 -0.01460935 0.015086849 0.012226291 -0.03963795 -0.040382218 -0.03950711 -0.1127427 -0.060051616 0.024420377 -0.021919815 0.1714308 -0.093876906 0.03366104 -0.07420214 -0.11742607
read 0.0038957307 0.0065306863 0.063651875 0.056068182 -0.028837336 -0.06982877 -0.08975336 0.081613965 0.05636228 0.0031534445 0.026163166 -0.044117197 0.03488305 -0.03243354 -0.038336705 0.060186323
second -0.0016374536 -0.06871037 0.06275053 0.048143335 -0.06571831 0.0099986335 -0.002092147 -0.016529731 -0.032477476 0.027482107 0.0010866708 0.088201225 -0.08419251 0.018066762 -0.09188362 -0.059297204
else 0.007167534 -0.015347816 0.0051228357 0.03944589 -0.031648222 -0.033868484 0.035104718 -0.076499596 -0.038503952 0.11226091 0.064945385 0.03151003 -0.045609165 -0.008505078 -0.04961614 -0.010755965
you're 0.06620365 -0.051879585 0.08551587 0.07091751 -0.025989713 -0.015800864 -0.009659845 0.03713776 0.038445033 0.059272543 -0.08826259 0.025913805 -0.04129403 0.040612146 0.0031178012 -0.00033045554
father -0.047848243 0.027023723 0.041785836 -0.02367911 0.060176786 -0.047714375 0.049523663 -0.0031316443 -0.047729798 -0.0454926 -0.04225647 -0.056459617 -0.00089871185 -0.032509133 0.07351867 0.06064561
fan -0.041053206 0.03369502 -0.0197273 -0.031736363 0.018242547 0.002390815 0.017156553 0.01105213 -0.04605057 -0.021830846 -0.039581902 0.039966334 -0.05600206 -0.073619254 -0.0071845553 -0.04047111
poor 0.18204571 -0.13864714 0.13283186 0.06848406 -0.11944462 -0.0502163 -0.108242236 -0.0880138 -0.07981419 0.08767576 0.0965134 0.14423339 -0.06247841 0.15606867 -0.16404772 -0.12374762
help 0.035742227 0.015213464 0.05762954 0.020656794 -0.020791253 -0.084234096 -0.011522536 -0.029264482 0.022725053 0.015644506 0.06746349 0.04398073 0.026774308 0.009457282 -0.039460372 -0.02578455
completely 0.07988498 -0.07976598 0.11174493 0.00834247 0.032126214 -0.05638314 -0.01502336 -0.10549716 -0.12244704 0.077665634 -0.10741302 0.021732256 -0.104133196 0.024880966 -0.017751532 -0.07789776
death -0.0040172148 0.01064907 -0.0028339035 -0.0029824967 0.0024625214 -0.024235098 0.0155044375 0.07461188 0.04544025 -0.08174291 -4.8016336e-05 0.014832182 -0.03849131 -0.055518594 0.055665854 0.043856006
3 0.13520074 -0.029099863 0.052459456 0.0730757 -0.010870942 -0.109474175 -0.08156039 -0.02678717 -0.08752506 0.02639688 0.06490375 0.008060876 -0.039044846 0.089133345 -0.089313835 -0.02852669
used -0.039201375 0.03734749 -0.03396661 0.018104983 -0.0069857794 -0.03965572 -0.04567394 0.010897969 0.055697083 -0.0013986294 0.07355952 0.042933557 -0.04240768 -0.01168549 -0.028791659 -0.06883023
home -0.022414282 -0.027661951 -0.015880061 0.010787189 -0.057963703 0.012183974 -0.027111473 0.02858498 0.037858065 -0.021012954 0.016536597 0.0039256667 0.007699637 -0.03598996 -0.052162778 -0.012676226
either 0.061568324 -0.042794783 0.043804172 -0.036095936 -0.05971129 0.035176437 -0.048798297 0.028863063 -0.108834326 0.026577074 0.012308145 0.069853626 -0.09841213 0.021735031 -0.06579482 -0.0041968473
short -0.033927683 0.016957156 -0.06584094 -0.03161067 0.012968799 0.050263315 0.017352598 0.0033795782 0.027559115 -0.017650295 0.054676622 -0.031155419 -0.04243609 -0.07269735 0.0854738 0.029597089
line 0.014974577 0.052364316 0.037539642 0.013823121 0.0046738577 -0.022269238 -0.016102545 -0.027082475 -0.06702769 0.048915062 -0.048448548 0.022183739 -0.006804302 0.028268848 -0.028836207 -0.041095756
given 0.026369745 -0.0302074 -0.008363019 -0.07658201 0.028116865 0.04411652 0.03690723 0.01305081 0.016332474 -0.03204845 0.007452743 -0.03124843 0.03404232 -0.018391658 -0.020418122 -0.033349205
men -0.049006894 -0.056150716 -0.0027455187 0.02006437 0.012860123 0.029836297 -0.011473782 0.0012447117 0.06418508 0.022635669 -0.039524663 0.0063153617 0.069875024 0.029034145 -0.007134304 0.025552193
top -0.04334281 0.028597288 -0.0060144793 0.0050402945 0.012976829 0.0441864 0.080978654 0.05681489 0.03983905 -0.044779982 -0.011698018 0.07381624 -0.04173833 -0.06758682 0.077436276 0.011442037
dead 0.0629071 -0.028251454 -0.054279923 0.028078552 0.017107945 0.014192921 0.03892034 -0.02648783 -0.047012046 -0.092889465 -0.011521408 0.053652566 0.038780726 0.06291624 -0.024730166 0.04556061
budget 0.032970943 -0.01260664 -0.0008518251 0.03074883 -0.016787972 0.09229807 -0.06627827 -0.0046554236 -0.035450175 -0.022906445 0.03242864 -0.032775402 -0.010961498 -0.04657008 -0.03828454 -0.0110357115
try -0.028793095 0.018268786 0.013297103 -0.04971757 -0.014478252 -0.03439471 -0.04358522 -0.03812137 0.010883814 -0.0008836543 -0.039659347 -0.030375762 -0.006767241 0.03204842 -0.033991586 -0.020537354
performances -0.07015723 0.06916523 -0.054597598 0.08125457 0.08289214 0.077012025 0.031898603 0.053838376 -0.18697344 -0.030768014 0.092340745 0.1162794 -0.1522297 -0.08232875 0.001314318 0.0756189
wrong 0.004930844 -0.023380281 0.024240023 -0.024179965 -0.046937536 0.058475144 -0.065029725 0.049702983 0.05709752 0.005091995 0.07286783 0.00659023 0.11166072 0.0034386718 -0.03288147 -0.08428127
classic -0.05444083 0.012395392 -0.040653124 -0.05161409 -0.003916052 0.06725159 0.06877076 -0.0066285334 -0.022361914 -0.0994546 -0.026628431 -0.07051548 -0.022016967 -0.06508377 -0.0017916838 0.019238213
boring 0.19316447 -0.13838045 0.11464242 0.06529856 -0.18635207 -0.07414242 -0.15583284 -0.16653876 -0.17837015 0.058339395 0.17399144 0.048032664 -0.07698318 0.20056987 -0.19199301 -0.054896943
enjoy -0.034422435 0.06315093 -0.02994399 0.032658122 0.07438168 0.035129715 0.016452473 -0.018909967 0.05822864 -0.094874136 -0.044310313 -0.006473261 0.09284313 -0.019924076 0.03409258 0.015074564
need -0.059364844 0.041878585 -0.061864708 0.0016478118 -0.039011735 0.06210437 -0.012397138 -0.037077304 0.07601589 -0.01505945 -0.011492826 -0.011805292 -0.0874458 0.031057961 -0.051466864 0.01587855
rest 0.013751245 0.02854245 -0.009906725 0.036905635 -0.045941327 -0.034015685 -0.04941287 -0.0432264 -0.006665024 -0.010557922 0.059180725 -0.020815538 0.033120353 0.032148194 -0.014041423 -0.016853668
use -0.034145594 -0.05145595 0.020797519 -0.046801355 0.015728412 -0.0069865687 0.032756355 -0.024592549 -0.03197047 0.06427654 -0.037625134 -0.03260234 -0.071212575 -0.016506534 0.009122994 -0.06097542
kids 0.013091235 -0.010138198 0.06462561 -0.027246043 0.018475013 -0.030146945 0.004390526 -0.03221478 -0.06258402 -0.004364257 0.02784513 -0.043224283 -0.00032910705 -0.04941532 0.018385913 0.018071502
hollywood -0.019645004 -0.02183483 0.008858571 0.02432937 -0.026679225 0.02814653 -0.03850295 -0.00899205 -0.05115132 0.043981157 -0.07157394 -0.01105412 0.011366235 -0.037588693 0.0066310726 0.023938337
low 0.09943216 -0.031050356 0.043020118 0.06218795 -0.06021042 -0.0151285855 -0.06660952 -0.015487239 -0.026677253 0.11354007 0.014300366 0.04593464 0.06820484 0.015920032 -0.040176764 -0.11029013
production 0.058585543 -0.066723816 0.020671763 0.032315794 -0.09207024 0.034943786 -0.0052172546 -0.095195435 -0.077391244 -0.017539669 0.041703712 0.026139895 0.004731156 0.022304341 -0.030995669 -0.037337534
until -0.07121318 0.03087764 -0.043214094 -0.060597114 -0.05185122 0.010340077 0.029451579 0.036419343 -0.034301475 0.028359545 -0.050946087 0.0018363467 -0.0365627 -0.045367554 0.0615069 0.04692816
along 0.021485358 0.07269982 0.02992847 -0.023431014 0.046752572 0.027432533 0.022782767 0.06851505 0.0031694646 0.024993394 0.011254928 0.032180082 -0.06986772 -0.02417724 -0.013195892 0.017127912
full 0.045427177 0.0515574 -0.032224637 -0.049003374 0.049039148 0.000115335846 0.041420218 0.0012173399 0.0272847 -0.028383117 0.011523662 0.03305532 0.07729821 0.013650377 -0.040361274 -0.011385094
friends 0.0035307163 -0.021960607 0.0145698255 0.02234039 -0.0042097974 0.0038090139 -0.041000623 -0.061480425 -0.010503528 0.008527077 -0.048807077 0.04353469 -0.012077724 -0.046849247 0.060097527 -0.028636271
camera -0.03240972 -0.038120896 0.036610674 0.010773249 -0.06669895 0.025635276 0.027249493 -0.0036914647 -0.006499071 -0.009087736 -0.040428117 -0.018513128 0.00317451 0.015151819 0.059671525 0.02575439
truly 0.0071947067 0.06739246 -0.018046862 -0.035575047 0.06302315 0.041023575 0.044529963 0.021406222 -0.035697147 -0.0049082204 -0.014080592 -0.014831012 -0.009222605 -0.048739817 0.06454573 -0.02452223
women 0.07221815 0.02170724 0.010103962 -0.03252439 -0.06618055 0.0085276095 -0.01824103 -0.020949373 -0.0067699947 0.003022722 -0.021371827 -0.04635343 -0.026994994 0.010211439 -0.057326082 0.06508577
awful 0.10573932 -0.11833593 0.1337622 0.08243148 -0.15664516 -0.16553982 -0.11569345 -0.16090028 -0.13291867 0.101399794 0.07724502 0.15408656 -0.068700135 0.14388937 -0.107491724 -0.18879561
video -0.04770834 0.047796678 -0.0632032 -0.037691284 0.022479482 0.0027639081 0.06194885 0.006727985 0.06310369 -0.0016065027 -0.0055342666 -0.014280653 -0.02867787 0.0408533 0.03124326 0.01122242
next -0.07004476 0.05497791 -0.046383794 0.033925395 -0.01545649 0.03949985 0.038392488 -0.012490889 0.00092489953 0.05301364 0.057145175 0.049029198 0.0964521 -0.030605271 -0.014417904 0.043486338
tell 0.039621223 0.040839557 0.037679166 -0.04077216 -0.048146162 -0.040127818 -0.04038143 0.06977113 0.037397563 -0.018600302 -0.09030456 0.039096907 0.029335693 -0.009565183 0.006574336 0.033296283
remember -0.02998393 0.040144686 -0.032368187 0.025993394 0.0003187231 0.014957799 0.0826518 0.049327753 -0.014760037 0.01727534 0.030389758 -0.068017505 0.014112043 0.00042964768 0.0071979044 0.015138875
couple 0.058243528 -0.038933765 0.007991799 -0.028915571 0.030628785 -0.04212411 -0.0104746865 -0.050620597 -0.010078365 0.044129 -0.04324639 -0.08227595 -0.0023493485 -0.05325395 -0.023220504 -0.01676302
stupid 0.05970673 -0.038184393 0.08097462 -0.005818278 -0.097428 0.06839422 0.045053758 -0.085504495 -0.09038253 0.07614692 0.016542433 0.06152411 0.12594593 0.03629839 -0.056780837 -0.03815091
start 0.058649763 -0.06965027 0.050184406 0.057320233 -0.096670054 -0.024079107 0.008213085 0.015892254 0.03302601 0.061460234 0.004074442 -0.039176475 0.01509245 0.05519656 0.013486697 -0.058218297
stars -0.043933112 0.05397449 0.038329378 -0.035123937 0.0257735 0.010516003 0.010678711 0.01674066 -0.05135869 0.01930338 -0.009478986 -0.022922562 -0.029119782 0.023244148 -0.0067286924 0.015574123
perhaps 0.06082505 -0.004346991 0.03873126 -0.0062119984 -0.03034575 -0.018906604 0.030652812 -0.053248573 -0.015163552 0.06610607 0.086134546 0.018783992 -0.021199506 0.024504177 -0.030426731 -0.009028874
sex 0.056006562 0.039113875 0.01727671 0.020864181 0.009297992 -0.031491227 -0.023925936 0.029897224 -0.013410112 0.033185896 0.005226099 -0.08497969 0.0063639837 0.07356329 0.01833447 0.009455715
mean 0.0743914 0.013412749 0.07845758 -0.026747301 -0.011964806 0.070154354 -0.007303933 -0.030388992 -0.010048853 -0.043572318 -0.08801298 0.1015756 0.042651467 0.04117973 -0.033161514 0.0031759809
came 0.019099062 -0.017027404 -0.038950443 -0.060470086 0.024256974 0.02657722 0.014071558 -0.06644922 0.011104799 0.039815538 -0.009453249 -0.0469278 0.028730627 -0.0026285201 -0.05409905 -0.011049554
recommend 0.02498528 0.05795049 8.036724e-05 0.03287604 0.07993476 -0.010252028 0.023680095 0.08619397 -0.1402982 -0.014476179 0.05641656 0.003139656 -0.11062554 -0.0847386 0.10732907 0.034967095
let 0.0031237195 -0.015883187 -0.037995353 -0.036724884 -0.009795757 0.011083362 -0.006011471 -0.027084459 0.0070968545 -0.0017059746 -0.03502514 0.04507436 -0.04325815 0.041698214 -0.036107097 -0.013232186
moments -0.050227802 -0.010277855 0.03380836 -0.0041212956 -0.0011635047 0.038703274 0.02891337 -0.022692617 -0.0133439405 0.005295293 0.015930714 -0.056574706 0.038123738 -0.04119819 -0.019500876 0.0075879283
wonderful -0.14371856 0.15275003 -0.0951783 -0.025905946 0.116806425 0.10196212 0.11222423 0.042221114 -0.031610843 -0.060171884 -0.039692417 0.008283025 0.099462606 -0.069739416 0.08288097 0.107782155
episode -0.068695195 0.061924417 -0.011806051 -0.014244488 0.08097688 0.055654027 0.035208423 0.06891033 -0.017747397 -0.030861119 -0.045316517 -0.049291946 -0.0022875296 -0.05299224 0.090333454 0.07360428
understand -0.040150046 -0.018143846 -0.0004570295 0.07400481 -0.025715265 -0.029911993 0.021416666 -0.022949273 0.01612963 -0.002355144 -0.042036444 -0.015075788 -0.025445467 -0.02635487 -0.0056706374 -0.0107153915
small -0.0045468276 0.03771672 0.047668442 0.009783875 -0.021902004 -0.0703813 0.029451737 0.0030050753 -0.013606724 0.017304163 0.025972178 0.02050451 0.03474549 -0.015818145 -0.024332808 -0.0149489725
face 0.008675335 -0.03434161 0.021903064 -0.01409901 -0.008596686 -0.055467118 -0.09416539 0.034335807 0.018551748 0.0033896957 0.015540676 0.0013474843 0.018812252 0.05220142 0.012449427 0.011679403
terrible 0.15822302 -0.11582294 0.13185705 0.101526305 -0.07114587 -0.05062131 -0.089666896 -0.12254848 -0.0911926 0.06740124 0.02630616 0.12104612 -0.032345366 0.13842437 -0.04835003 -0.12295118
playing -0.032415163 -0.032755055 0.04083876 0.032047845 0.026401145 -0.013254894 -0.06058829 -0.04678335 0.0052674236 0.042305835 -0.059629936 -0.054215424 0.07548277 0.07133841 -0.02445116 -0.06487619
school 0.07561622 0.017857248 0.0023814263 0.049392484 0.0109111685 -0.037140768 -0.008931915 -0.033851378 -0.0005475448 0.021999974 0.04790289 0.0023797387 -0.055197895 0.031324547 -0.02587028 -0.06293341
getting 0.01845942 0.023069315 -0.045137223 -0.04007409 0.02069057 0.0047414848 0.03131373 -0.041825667 0.0797529 -0.048827562 -0.027783995 -0.011966168 -0.056943066 -0.018245291 -0.006392021 -0.01876861
written 0.07293189 0.031104706 0.06610056 0.04793484 0.03452357 0.027559375 0.098402195 0.018918252 0.10060272 -0.0191653 0.0027898673 0.05520571 -2.3858944e-05 0.0568918 0.054403007 0.0079126395
doing 0.06300811 -0.016564187 0.028694961 0.035117667 0.021889802 -0.047808643 0.01957299 -0.07341758 -0.0018768434 0.0987904 0.032288987 0.07623441 0.050857693 0.0113584595 -0.10606811 -0.0017495933
often 0.02365113 0.053012304 0.02284404 0.0069269734 -0.06552285 -0.017932188 0.026165087 0.032037795 -0.08624248 -0.02225209 0.010688156 0.036100592 0.04372976 -0.040330164 -0.015157125 0.05297174
keep 0.021489536 -0.050791133 -0.011213655 -0.009048349 -0.03225961 0.062129013 -0.018793285 0.041645996 -0.05327419 0.032159265 0.04564531 -0.0061043333 -0.020693457 0.013079804 -0.04486697 -0.013007302
early -0.035633013 0.012025869 0.029627685 -0.030402368 0.018475635 0.0111014 0.014300273 -0.07286117 -0.0105253495 0.05784424 -0.018075047 0.02884261 -0.1021583 -0.0114954095 -0.07533139 0.013078787
name 0.033664327 -0.047954183 0.02333435 0.020092648 -0.017728785 -0.037209805 -0.03488058 0.014987169 -0.025101995 0.030632077 -0.036404587 -0.022636186 0.019514319 0.07656289 -0.05506142 -0.0031563523
perfect -0.04206806 0.13268939 -0.11894019 -0.15256849 0.12423726 0.06877702 0.028964752 0.08531032 0.012614551 -0.11946327 -0.024527274 0.089447685 0.048968256 -0.16898564 0.14065968 0.1387436
style -0.04214202 -0.068337075 -0.004364803 -0.08524116 -0.016255358 -0.009136662 -0.047583655 0.04119203 0.019891962 -0.020091975 0.026014868 -0.11041583 0.009697775 0.008846452 -0.01824862 0.0775042
human -0.00011201018 0.06473636 -0.056316026 0.00923565 -0.017031966 0.036677215 -0.0035362237 0.045473423 -0.0153161185 -0.059996948 0.11662925 0.046757165 -0.09452372 -0.08461609 0.10061469 0.02134887
definitely -0.07432854 0.106437854 -0.12777446 -0.079808034 0.017567309 0.11517859 0.15655395 0.045302436 -0.004023838 -0.05427184 -0.044194896 0.036572523 0.09067977 -0.027569488 0.047976032 0.09907242
gives -0.050865993 0.03519206 -0.019237328 -0.0096870875 0.032524116 0.08739939 0.059330903 0.07274492 0.032030478 -0.0058697737 0.118627355 0.033847425 -0.048676953 -0.017065078 0.018018583 0.06295014
others 0.024767907 -0.0041586957 -0.0058507794 -0.013006028 -0.004881392 -0.020449262 0.026687283 -0.019061852 0.0027567553 0.01890712 0.010412497 -0.061240844 -0.054850712 -0.033806425 0.047161162 0.03624559
itself 0.013624507 0.03677769 -0.01855576 0.07485944 -0.033548243 -0.034599174 -0.06179646 -0.02944156 -0.11144785 0.047322 0.036326725 0.022565804 -0.020135246 0.040095557 -0.06032375 -0.039062906
lines 0.060542896 -0.008353283 0.07292997 -0.047479387 -0.038064495 0.024203392 -0.042242378 -0.015598922 -0.07246509 0.11350843 -0.021361921 0.021767823 -0.005249762 -0.011865274 -0.010123245 -0.037947353
live -0.022800917 -0.02585295 -0.008842935 -0.06664817 0.03779867 0.0061794384 0.016416118 0.09838442 0.058452256 -0.038764592 -0.033475418 -0.03376442 -0.039766487 -0.049528375 0.052054252 0.03987639
become 0.0108296545 0.007569688 -0.110410176 -0.06080569 0.019553607 0.02898449 0.05179073 0.060304113 0.057348065 -0.06411919 -0.06559901 -0.03809757 -0.012499434 -0.10662643 0.038598392 0.07884771
dialogue 0.06487891 0.0004891277 0.05424421 0.037538942 -0.0459879 -0.028514948 -0.025044922 -0.012906743 0.0075241807 0.02295784 0.09411502 0.027285293 -0.018958459 0.03417248 -0.015398767 -0.108451754
person -0.014337656 0.027636714 -0.06147555 -0.04604714 0.00078801287 -0.061585907 -0.05402058 -0.01926129 0.06261505 0.018378004 0.005340997 -0.10336692 -0.031348176 -0.05406684 -0.008847714 0.037033174
lost 0.065008275 -0.008738139 -0.020931667 -0.01250846 0.0061320406 0.04276006 -0.021976883 -0.052806906 0.025763948 0.0368473 -0.048469845 -0.00802061 -0.048880085 -0.009519247 0.04303817 -0.04380365
finally 0.06598806 -0.00069669867 -0.0052133836 0.043681048 -0.074081674 -0.10180161 -0.011356209 -0.0034283474 0.016726304 0.008192782 0.007631243 0.011718345 0.0042275274 0.025863808 -0.04797501 0.025171962
piece 0.043926578 -0.0080700945 0.028076027 -0.03305969 0.042125907 0.026633939 -4.651163e-05 0.009308954 -0.047094725 -0.026318425 0.091648966 0.07535357 -0.12163494 -0.017737186 -0.036146246 0.03276556
head 0.10964595 -0.031221632 0.10728892 0.019807318 -0.06071718 -0.081901155 -0.02629732 -0.0416055 -0.03932787 0.035487887 0.0076198275 0.032864418 0.04912051 0.07585189 -0.016110932 -0.06670727
case 0.0497635 0.046167452 -0.065236144 -0.060083717 0.06636419 -0.027530618 0.011162222 -0.033163756 0.00084404467 0.03501997 0.04053445 0.13735509 -0.07652983 -0.04127122 0.053585157 0.0077088783
felt -0.0014238047 0.032037914 0.0444684 0.005741532 0.019448824 -0.021698847 0.001202957 0.029056298 -0.010895271 -0.04453958 0.0077047464 -0.017350849 -0.0041622557 -0.043678306 0.016299298 -0.04528866
yes 0.0034203816 0.022953505 0.012351407 -0.03273193 0.049757887 -0.00010474466 -0.014409276 0.016399132 0.0037566468 0.008886039 -0.08714813 -0.08977286 -0.018116627 0.030896472 0.052541066 0.035050016
liked -0.14107133 0.028981907 -0.0028829481 0.0013841586 0.058438852 0.04621619 0.1267161 0.03847548 0.086203404 -0.061572302 -0.017139535 -0.03923163 0.05009071 -0.024709564 0.06301626 0.0075900257
supposed 0.05574527 -0.094158046 0.031286906 0.072817005 -0.119416036 -0.10494883 -0.1267327 0.009120826 -0.07686078 0.022857076 -0.016098883 -0.0017685636 0.0147250565 0.13148266 -0.07089181 -0.11150085
title -0.028085776 -0.018504009 0.03382063 -0.025916716 0.07368608 -0.03212729 -0.0073878495 0.029100837 -0.084652856 -0.05791818 0.015476242 0.15257448 -0.07741029 0.0063332906 0.00410093 0.028235104
couldn't 0.04514037 -0.026666408 0.05462467 0.055771943 -0.05037324 -0.0067251674 -0.061921038 -0.10267884 0.0014054998 -0.02939508 0.039296255 0.01776785 0.005180256 0.071557246 -0.08118947 -0.07389074
absolutely 0.04933775 -0.032962713 0.10873516 -0.06377182 0.06251465 -0.0006172009 0.024697658 0.045446977 -0.03351695 0.07128618 -0.03203579 -0.029144134 -0.11082265 0.060352124 0.029259311 -0.08214739
white 0.002197961 0.024354896 -0.04450688 -0.01967237 0.04965036 0.050630607 0.033937912 0.059323214 0.059793126 -0.03539417 -0.024396053 -0.061250824 -0.026868526 -0.038244963 0.026462054 0.05250011
against 0.007661376 0.044652637 -0.041296456 -0.03192224 0.031745143 0.02584081 0.07829554 0.048906613 0.013168843 -0.043286342 -0.067211635 -0.02650615 0.01946038 0.006480869 -0.0036494152 0.025300678
boy -0.043460883 -5.6863504e-05 -0.013716109 0.0032865223 0.035503104 -0.019092513 -0.0026742793 0.023460163 0.044559143 -0.0074577625 -0.034794677 0.057652812 -0.010566158 -0.036482163 0.00075048447 0.039107826
picture 0.028889753 0.041564785 0.015574697 0.0523207 0.071362846 -0.051064216 -0.042466264 0.010959837 0.017076684 -0.052783944 0.0077789593 0.061217558 -0.07645973 -0.01402303 -0.028583562 -0.03622384
sort -0.004612453 0.051518958 -0.019773494 0.0560917 0.027427964 -0.023115067 -0.039471153 0.067172185 -0.039091013 0.025238724 0.0339638 -0.035663467 -0.02473189 0.052424584 -0.05697585 -0.022676239
worse 0.0733794 -0.10513061 0.049367268 0.06450473 -0.13527355 -0.0018264155 -0.081860594 -0.10774997 -0.110893756 0.12464438 0.048909444 0.053234734 0.018256845 0.08336119 -0.09835937 -0.14879198
certainly -9.850603e-05 0.02275483 -0.018841583 0.064557195 -0.03367022 -0.03739932 0.014192059 0.019725008 0.017924117 0.002496195 0.036230307 -0.013798739 -0.06485063 -0.010214077 -0.003704827 0.023135984
went 0.026414782 -0.043080084 -0.019131657 -0.006951912 -0.034664996 -0.0002463018 -0.04264465 0.00068430044 -0.039203588 -0.07056463 -0.046776578 0.0003623824 0.016767187 -0.039524525 0.057062224 0.01069646
entire 0.06504977 0.00988399 0.028294748 0.026631186 0.008455847 -0.032627694 -0.05376567 0.07232551 -0.00878026 0.0694804 0.038791325 -0.03150757 0.04932094 0.07605754 -0.06749264 -0.0037286836
waste 0.16185041 -0.20832086 0.15895881 0.120945714 -0.22778574 -0.18669093 -0.21360272 -0.08460336 -0.21747689 0.17318206 0.20542882 0.15503593 -0.12983422 0.23119642 -0.23418905 -0.11954374
cinema -0.0047526252 0.07764376 0.04574299 -0.084328115 0.04377467 -0.027838854 0.056146335 0.004694809 -0.01118027 0.035976827 0.0013683083 -0.053302944 -0.007891885 -0.07051518 0.06588253 -0.017451586
problem 0.08468595 -0.0133233 0.057052866 0.06948003 -0.032876648 -0.00417504 -0.033626664 -0.05556053 0.002158305 -0.015441473 0.033389423 -0.013390084 -0.009218429 0.0754597 -0.032096792 -0.040999383
hope -0.08338326 0.059921768 -0.028219357 -0.051710382 0.054377124 0.09408 -0.025258763 -0.019578872 0.037475817 -0.026910763 0.009869846 -0.049047675 -0.048400618 0.018083306 0.051837187 0.07653001
entertaining -0.11398099 0.158244 -0.02604447 -0.09324598 0.09537983 0.1427528 0.0631552 0.10079877 0.011001947 -0.08621823 -0.06522261 0.000598918 -0.0438284 -0.13087694 0.09254014 0.06325441
she's 0.012702226 -0.044026166 0.043303274 -0.006711175 -0.02549443 -0.021016803 -0.017014194 -0.038694426 -0.06885725 0.06563569 -0.0010784226 -0.015064076 -0.02181427 0.019256571 -0.036743116 0.006864135
mr 0.011677506 0.016349068 0.026846169 0.038774766 -0.005844245 -0.056204826 -0.054359566 -0.0646539 -0.061242398 0.07790599 -0.03885941 -0.083694555 -0.073848255 -0.0035724235 -0.008156886 -0.03275259
overall 0.008448429 0.042005382 0.0016087763 -0.034309994 0.09573977 0.03981597 -0.022357179 0.029810244 -0.07042233 -0.07344143 0.0056457454 0.13020794 -0.025491226 0.0093574785 0.04368462 0.0063650366
evil -0.017436927 -0.05880713 0.008044142 0.004452274 -0.003735177 -0.03572064 0.06352702 -0.004387464 -0.03432713 -0.026762826 -0.017218927 0.011455378 0.013096641 0.056762617 -0.05263219 -0.0005127425
called -0.039325748 -0.04119133 0.029383013 -0.061076824 -0.011933663 0.016038524 -0.004003136 -0.0018807576 0.035976272 -0.012143057 -0.07041336 -0.11169505 -0.04795646 -0.020040829 0.017382188 -0.0006283732
loved -0.117589936 0.037131213 -0.10452721 -0.03753161 0.116191536 0.02477903 0.044461906 0.057039242 0.043037135 -0.071491905 -0.031614855 -0.08543023 0.07498858 -0.1336192 0.14762463 0.13467123
based -0.08320232 0.027000528 -0.08472447 0.029230468 0.032261208 0.101017 0.05376771 0.061418235 0.043111727 -0.02040317 -0.065902375 0.0039734496 -0.0022075998 -0.060463406 0.03298742 0.009568023
oh 0.100010395 -0.029065147 0.02895156 0.03713921 -0.08094841 -0.05808353 -0.069549665 -0.035256967 -0.086515464 0.026860839 0.07217585 -0.029731123 -0.10202756 0.13969214 -0.0749623 -0.03546505
several -0.08973909 -0.018733677 0.01978753 -0.023068432 0.03599317 0.035923213 0.05200998 0.06876039 0.02656482 0.010379628 -0.058624938 0.03775953 -0.020571519 -0.0623379 0.021611052 0.021077203
fans -0.019695211 0.039727658 -0.047450267 -0.11198387 0.10781753 0.061817016 -0.008883711 0.0076593575 0.027385574 -0.0054666772 -0.005423631 0.13583338 0.014601326 0.0066257324 0.0052946154 0.04133843
mother -0.0039752815 -0.0357503 0.027499247 -0.037878335 0.02709832 -0.020018922 -0.04417037 -0.07346378 -0.026901953 0.014372175 0.015546393 0.072490476 0.057400253 -0.00076827424 -0.03510416 -0.068295464
drama -0.025966696 0.0903829 0.018144635 -0.060613185 -0.007724201 0.02192271 0.06339085 -0.047901046 -0.12184863 0.0376931 0.006844387 0.045037553 0.049920082 -0.05895135 0.02252366 -0.023464078
beginning 0.015573314 0.037341494 -0.022418428 -0.057168342 0.014676403 0.046185814 -0.0074815205 0.03662245 0.035533793 -0.013251878 0.024938175 -0.0068490864 0.073438935 -0.08428154 0.032332867 -0.022095375
killer 0.023817956 0.005386803 -0.06390948 0.016747536 -0.047897052 0.08484746 -0.0027671864 -0.0067009307 0.048045732 -0.022174783 -0.048995603 0.03517285 0.022857537 0.029794054 0.023919884 -0.037660636
lives -0.055862643 0.054957155 -0.0021912365 -0.011068089 0.06986369 0.039363384 0.018603303 0.00067453226 0.027329357 0.008826882 -0.026268015 0.070992485 0.06563237 -0.06519838 -0.025600905 0.0017086446
5 0.03726154 0.010205202 0.01832602 -0.026435073 -0.042561345 0.008552977 -0.051088396 -0.06355621 -0.00917792 0.0429832 0.012740848 0.04086075 0.06255965 0.0042319302 -0.021775868 -0.075567394
direction -0.0073908768 0.091946974 -0.023200871 0.05818957 0.02378961 -0.070574895 -0.013493603 0.029890792 -0.0005079959 0.05177377 0.05797216 -0.15281466 0.031560663 -0.0051497654 -0.036533352 0.02518391
care 0.02833901 -0.14547016 0.13766472 0.038681056 -0.0037938824 -0.0876322 0.010742845 -0.057823546 -0.06767572 0.060476895 0.037814967 0.08794423 0.036585674 0.085406475 -0.05953655 -0.13511734
already 0.044880696 -0.09670085 0.008296256 -0.075925626 -0.020280752 -0.043055065 -0.093919046 -0.011100799 0.06780931 0.010888132 -0.0968088 0.0075662113 0.0939954 0.070475526 -0.015442032 -0.10572397
becomes 0.04073477 0.039711505 -0.018428616 -0.07585225 -0.0029992633 0.013900189 -0.03219677 -0.009817482 0.015282101 0.0040862355 -0.066322096 0.038371373 0.037683625 -0.0003995154 0.010884208 -0.0025696652
laugh -0.03373111 -0.025110278 -0.00341734 0.047275577 0.04780447 -0.010988725 0.019684076 0.027543714 -0.01532122 -0.029186398 -0.050669763 -0.098362334 0.011566285 -0.0022789359 0.033094972 -0.04663339
example 0.011352878 0.014416005 0.019566124 0.051783573 -0.0043153814 -0.05470599 -0.06791923 -0.021730056 -0.023193518 0.04569533 0.090909325 0.025978593 0.0035054337 0.074049704 -0.055826586 0.0048737503
friend 0.0768292 -0.021129278 0.018154966 0.012732751 -0.040333733 0.014165912 -0.040269524 -0.038393933 -0.108174734 0.03692892 0.015819473 0.07553584 -0.11588655 0.053264946 -0.039382886 -0.08327732
dark -0.08322187 0.022945674 0.011530462 -0.05024498 0.0012669447 -0.0039076325 0.025547257 0.08497702 0.016117346 -0.03014557 -0.022170605 -0.0096575655 -0.02532854 -0.006306853 0.09557354 0.041236963
despite 0.024247335 -0.10084667 0.046584293 0.08485962 -0.019482281 -0.026105745 -0.107349426 -0.06394975 0.009770904 0.02033335 -0.028068306 -0.0058980444 0.08146444 0.058900513 -0.023096852 -0.064778924
under 0.066102244 -0.048440494 0.018130243 -0.030491633 0.011394362 -0.0029155554 -0.1017862 -0.014095263 0.034850087 0.0036956663 0.074306935 -0.02938632 -0.019998334 -0.024275107 -0.0302484 -0.025714522
seemed 0.058610965 -0.00631589 0.045233656 -0.010860763 -0.006701896 0.036362432 -0.043886073 -0.03937263 0.04865624 0.011442999 0.04481853 0.03966608 -0.034073975 0.0125783 -0.08620941 -0.051019482
throughout -0.10122838 0.00658423 -0.05565479 -0.008026328 0.033120416 0.017978106 0.0022983525 0.0712435 0.13878408 -0.081016585 -0.025652556 -0.067633145 -0.0058294046 -0.047960874 0.019775549 0.04553619
4 0.08514459 -0.067636974 0.08184187 0.11532584 -0.025598854 -0.060072128 -0.061432637 -0.066517524 -0.07833963 0.019769946 0.021949444 -0.055351526 -0.05332281 0.039862618 -0.034425214 -0.05756287
turn 0.1045742 -0.0053283707 0.029105866 0.08930364 -0.0375536 -0.06352403 -0.10693984 -0.05924676 0.032920543 0.09138388 -0.010121343 0.027792748 0.045438915 0.04147997 -0.033902224 -0.00396358
unfortunately 0.14894615 -0.06534151 0.1356515 0.01662384 -0.03176498 -0.14426295 -0.06487699 -0.08638495 -0.09345482 0.06294872 0.11299857 0.1099496 0.0035044902 0.15733449 -0.08437745 -0.13644099
wanted -0.027495114 -0.01247466 -0.06767157 0.061244063 0.012848274 -0.05988327 -0.014298978 -0.07131966 -0.05111685 0.04251847 -0.009846781 -0.049160797 -0.030729325 0.01223191 0.012284924 -0.007212566
i'd -0.042198826 0.053262524 0.010982702 -0.07622432 0.006353176 -0.06053247 -0.040827427 -0.043946616 0.068321325 0.01559952 0.03632156 -0.06471714 0.010380504 -0.03642858 -0.0065546515 0.032767765
 -0.027700951 0.04449188 0.0178683 -0.025710987 0.056562565 0.04450777 0.053195912 -0.026791213 0.015543724 0.017968873 0.050146285 0.07723432 -0.03608024 0.012685254 0.048315857 0.0045705847
children -0.012557961 -0.028223747 0.02717899 0.054843225 0.0058305743 0.030795442 -0.05097825 -2.0039797e-05 0.026883336 0.00051579374 0.03755373 -0.0024799178 -0.012399262 0.026059365 -0.010606793 0.04021431
final -0.006854201 0.08136614 -0.010999728 -0.026420237 -0.03840677 -0.0041474234 0.049754404 0.009019409 0.12994087 -0.028125947 0.041950338 0.0032628132 -0.037426554 -0.072761305 0.090210944 0.0072791055
fine -0.04071613 0.04059603 -0.059369266 -0.07637403 0.058706537 0.032015856 -0.052997086 0.0071415636 0.049191106 -0.04860139 0.04032769 0.022243416 0.029493174 -0.050296016 -0.012699737 -0.038284507
history 0.0017501188 0.03042857 0.024642672 -0.076157175 -0.011906157 0.06272744 -0.01907083 0.09284419 0.06607669 0.007778717 -0.01490577 -0.03921186 -0.035598416 -0.06711495 0.06357574 -0.025970772
amazing -0.091122694 0.1156533 -0.067315966 -0.1239906 0.12540396 0.05443692 0.10180719 0.10355167 0.07764072 -0.07490015 -0.01384677 0.04987388 0.020172136 -0.07233588 0.10858115 0.06688266
sound 0.004248838 0.02170101 0.005625401 -0.028809894 0.011853625 -0.021465823 -0.056053523 0.026194919 0.04459085 0.01777134 0.020402027 -0.11180166 0.06133397 -0.009025768 -0.007085167 0.036206193
guess 0.101876765 0.009040674 0.025007615 -0.008841663 -0.07337581 -0.027648523 -0.09148178 -0.019492285 -0.06223553 -0.026913764 0.05748818 -0.036629498 -0.044718247 0.03403054 -0.112643026 0.045109197
heart -0.06957345 0.104032576 -0.06904087 -0.03976682 0.029123852 0.0146216955 -1.832786e-05 0.060089216 -0.001960217 -0.08662472 -0.05555229 0.04015821 0.02415161 -0.09907511 0.0441059 0.07658372
totally 0.03689413 -0.043487858 -0.027298305 -0.014801208 0.035628207 -0.02628523 -0.015778348 0.080050685 -0.06697254 -0.021939384 -0.053452972 -0.027767004 -0.1659647 -0.014679555 0.051086236 -0.039920416
lead -0.001071172 -0.011600792 -0.054333746 0.029348418 -0.02626738 -0.074015416 0.030867662 0.0038880405 0.045152903 0.045117937 -0.014868208 -0.01191143 0.12564898 -0.05336703 -0.029586753 -0.0490821
humor -0.049551 0.04858488 -0.07464327 -0.016177597 0.026740564 0.1040554 0.022118308 0.051789377 -0.08095565 -0.024302509 0.095528536 0.07919366 0.016859088 -0.044853646 0.08081355 0.04623181
writing -0.020484027 -0.007829993 0.031018479 0.01580254 0.024725514 -0.009643091 -0.0020341966 -0.022645667 -0.015369678 -0.0063242065 -0.00034563697 0.053228907 -0.10185697 -0.08572496 -0.11152071 -0.030531997
michael 0.043849386 0.014871546 0.003441145 -0.012930737 0.07336974 -0.035948403 0.017237982 0.021992242 -0.093720384 0.028349292 0.09978076 0.005027725 -0.026036495 -0.014682036 0.023323303 0.034863245
quality 0.014815229 0.08713047 0.03862983 -0.026824329 0.033270888 0.040100567 0.10408974 0.0006346993 -0.017802985 -0.03301025 -0.02733499 -0.013575371 0.0406166 -0.058778852 -0.018635692 -0.03869218
you'll -0.04007259 0.054924134 -0.041958954 0.021783395 0.07073613 0.070950605 0.0612566 0.015738914 -0.07263288 0.019387431 0.09283284 0.0451407 0.061724816 -0.0049372516 0.018014418 0.021290584
close -0.016457742 0.060806636 -0.051822003 -0.04258825 0.045826025 0.047788523 0.05818823 0.0026641288 -0.052249692 0.011869285 -0.098647326 0.008898213 0.041350536 -0.06731533 0.03398624 -0.017285544
son -0.07549385 0.058449294 -0.030961515 0.04807246 -0.026462674 0.0700219 -0.0010000523 0.007734184 0.017158484 0.0099775735 -0.07792588 -0.040834896 0.0020687021 -0.01178283 0.0338135 0.016284535
guys -0.0018454154 0.0064791157 -0.005294499 -0.04707294 0.03492804 0.03234194 0.09331537 -0.0061218366 0.06553593 0.0122588435 -0.012753415 0.017256062 0.066095844 -0.0014523563 0.023639183 -0.032260686
wants 0.09362446 -0.09203206 0.022314386 0.03415277 -0.050523892 -0.033173848 -0.06278018 -0.029647322 -0.010495127 0.0077791647 0.014012683 0.037860245 0.006431321 0.013622576 -0.051009607 -0.07980799
works -0.019451044 0.027682506 -0.056466915 0.00630935 0.04015844 0.0070854407 -0.003374821 0.06019563 0.11814768 -0.06545502 0.024205513 -0.010875656 0.048522726 -0.055419005 0.06990298 0.045331545
behind -0.020662013 0.03470323 -0.0009173937 -0.021184823 -0.021237101 0.04427801 -7.8334255e-05 -0.032351445 0.033167113 -0.020693278 -0.042028468 0.015727056 0.017969487 0.03051544 -0.010982476 -0.05984226
tries 0.04606562 -0.04706227 0.07073378 0.04880538 -0.049769584 -0.15853597 -0.13387504 -0.015450753 -0.019387586 0.033963677 0.04429001 0.04730955 -0.08865927 0.0897806 -0.09989638 -0.11442349
art -0.043107834 0.02143752 -0.04630024 0.012262785 -0.035331383 -0.029510746 0.059917264 0.0544568 0.071151115 0.0023361614 -0.061664123 -0.00872301 -0.06569015 0.039197195 0.06806461 0.054117654
side 0.010869946 -0.05519964 0.047488056 -0.012717384 -0.048801333 0.012589064 -0.06554312 -0.027763706 0.067004055 0.0820564 -0.0018995008 -0.07087934 -0.011371641 0.067295626 0.015299741 0.0067502353
